// af1_bias.h
// 2017/12/02 21:16:10 by marsee

const float af1_fbias[100] = {
	-0.00390574201285, -0.0347241035452, 0.241845932308, -0.062303605012, 0.0205723579967, 0.106159559643, -0.00598569935534, -0.0986209801855, -0.00676604233408, 0.109087006978, -0.0456215589621, -0.00598934887108, -0.189919236558, -0.00594090717117, -0.122851270474, -0.0934524521939, -0.0861374393331, 0.0677821855117, -0.113369787334, -0.0247661303463, 0.160684844135, -0.00596675382948, 0.0591131588335, -0.0807443102762, -0.0362421518765, -0.0109753720543, -0.0059978974115, 0.0120923954133, -0.0731688450047, -0.00577996751482, -0.00694999833442, -0.0725972462906, -0.0709171602534, 0.00438402341188, -0.0059425431584, -0.00718726196782, 0.0486359761145, 0.0508970783783, -0.0459437095415, 0.00841986432402, -0.0886096466926, -0.0554009389256, -0.0160467120975, -0.0200384755418, 0.0334376770947, 0.12752156546, -0.0676279399553, -0.00177874427633, 0.132853465195, 0.0219810455323, 0.189900877446, -0.0214344681104, 0.26781160204, -0.00640258283844, -0.0634809975697, -0.120519884845, 0.198954845529, 0.0952962409613, -0.00598888352653, -0.00562833374982, -0.0279505748785, -0.00585441114839, -0.0249595443098, 0.0551417272422, -0.0609928975464, 0.183308548316, -0.0006619219134, -0.0699200224693, -0.00511021015296, -0.0784040648583, -0.0703569421233, -0.00597605460871, -0.0336752480318, 0.123547551544, -0.0606093661821, -0.120353239406, -0.00594422525627, 0.158214059854, -0.0862541788938, -0.0848599726863, -0.0248728789727, 0.0810166312648, 0.0353035939794, -0.0233155043458, 0.189533418205, -0.0143091912888, -0.0327282216644, 0.0330155118733, -0.0371915917014, 0.103035367891, -0.119115124879, -0.0103349748679, -0.00598337893243, -0.247844900166, -0.0459774764897, 0.0933613669085, 0.14765064018, -0.00597220732252, 0.0598218179317, 0.0441602670335
};

const ap_fixed<9, 1, AP_TRN_ZERO, AP_SAT> af1_bias[100] = {
	0.0, -0.03125, 0.2421875, -0.05859375, 0.01953125, 0.10546875, -0.00390625, -0.09375, -0.00390625, 0.109375, -0.04296875, -0.00390625, -0.1875, -0.00390625, -0.1171875, -0.08984375, -0.08203125, 0.06640625, -0.109375, -0.01953125, 0.16015625, -0.00390625, 0.05859375, -0.078125, -0.03125, -0.0078125, -0.00390625, 0.01171875, -0.0703125, 0.0, -0.00390625, -0.0703125, -0.06640625, 0.00390625, -0.00390625, -0.00390625, 0.046875, 0.05078125, -0.04296875, 0.0078125, -0.0859375, -0.05078125, -0.01171875, -0.015625, 0.03515625, 0.12890625, -0.0625, 0.0, 0.1328125, 0.0234375, 0.19140625, -0.015625, 0.26953125, -0.00390625, -0.05859375, -0.1171875, 0.19921875, 0.09375, -0.00390625, 0.0, -0.0234375, 0.0, -0.01953125, 0.0546875, -0.05859375, 0.18359375, 0.0, -0.06640625, 0.0, -0.07421875, -0.06640625, -0.00390625, -0.03125, 0.125, -0.05859375, -0.1171875, -0.00390625, 0.16015625, -0.08203125, -0.08203125, -0.01953125, 0.08203125, 0.03515625, -0.01953125, 0.19140625, -0.01171875, -0.02734375, 0.03125, -0.03515625, 0.1015625, -0.11328125, -0.0078125, -0.00390625, -0.2421875, -0.04296875, 0.09375, 0.1484375, -0.00390625, 0.05859375, 0.04296875
};
