// af1_weight.h
// 2017/12/02 21:16:10 by marsee

const float af1_fweight[1440][100] = {
	{0.00988437447211, -0.0275336932055, 0.0269380819222, -0.148625402058, 0.200714466483, -0.0882824832635, -0.0174653433038, 0.0334189743014, -0.00698534348241, 0.174624346814, -0.0395733839287, -0.0075225769336, 0.0312163369411, -0.00611803872857, -0.0226807164716, 0.065766761431, 0.031660912929, 0.164460422364, 0.184293273587, -0.00510547393267, -0.229705402539, 0.0135515575717, -0.0857903459079, -0.0537216601689, 0.00457589231839, -0.0553983880354, -0.00867241710534, 0.126076743181, -0.153428337667, 0.00742178657892, -0.0016702721572, -0.103345164216, 0.312957235521, 0.10984480333, 0.00968966081356, 0.00135150033231, -0.179353775202, 0.191381683028, -0.0341316716742, -0.0371333270669, 0.0519038809519, -0.13005247217, 0.00990222587242, 0.0103824478577, -0.0401932047069, -0.00178531305406, 0.205329428713, 0.0863299947546, 0.0377728788084, 0.106366898709, -0.312532484841, 0.128053975251, 0.0309547310208, -0.00199462035243, -0.00651553934116, 0.140413986765, -0.0332747367577, 0.113010783957, -0.00548553669787, 0.0123815152517, -0.169769972509, -0.00241349565606, -0.144797691823, -0.0728472854105, 0.0692662961838, 0.0579173296991, 0.311822037684, 0.10942773692, 0.00558840789526, 0.0178509710198, -0.0236950850628, -0.00481678996585, -0.0208825305072, 0.146809884819, -0.0502382531702, -0.00421466741204, -0.0161110323286, -0.102493889146, -0.188212076966, -0.0210446928321, -0.00084914819151, 0.174106584554, 0.138683310726, -0.146370556665, -0.112266591621, -0.00824252493601, -0.0108210535484, 0.0367665775885, -0.0690805732588, 0.108149466023, 0.192491374983, -0.101598383937, 0.0170023192399, 0.0433436428637, -0.0742323511555, 0.0872925232914, 0.0151455686366, 0.0128124858554, 0.052800658399, -0.139285155509},
	{-0.00617925143772, -0.0131862519823, 0.0151144102607, -0.155321931518, 0.13867107327, -0.0413365862756, -0.00863017654935, -0.0519694756487, 0.00184591123757, 0.136604082021, -0.159287227752, 0.00871988908673, -0.0330958892678, 0.00455390500532, 0.024720664219, -0.0562848752311, 0.0403450739923, -0.0301479002238, 0.0426367308792, -0.00581201239555, -0.262290972688, -0.00805639801765, 0.0387245779374, -0.113781361962, -0.0502592620988, -0.0684442635739, -0.0161780006297, -0.0528947301521, -0.0548450586737, 0.0632399196631, 0.00777234508229, 0.0440106720441, 0.214513855843, -0.0790726119851, 0.0174486909061, -0.0186641489863, -0.142862420442, 0.18099176243, -0.0129254496754, 0.0852105407461, 0.182352828586, -0.130130905793, -0.0132570636004, 0.0371533568151, -0.176382984964, -0.188294053355, 0.02185244412, 0.0215678605342, 0.0453706156425, 0.174635112644, -0.295145103859, 0.169610810734, 0.157945343137, -0.0121740198267, -0.0259922260273, -0.0213550227986, -0.105616074771, 0.153150942738, 0.00942581187943, 0.017893905034, -0.170718158475, -0.00260018080906, -0.064185302727, -0.241199383661, 0.223893762126, 0.0696081495677, 0.103781850597, 0.215638014779, 0.0183078869219, 0.0700324726918, 0.0288579645501, -0.0110817396035, -0.0500876295741, 0.354165116957, -0.0442008893882, -0.109813861186, -0.0011678268974, -0.135611398267, -0.0705860166376, -0.075046720934, 0.00291891771374, 0.12377445364, 0.107759220953, -0.197377856047, -0.0278729196896, -0.00212567481823, -0.00827606022373, -0.113586313613, -0.174972558922, 0.0755315037057, 0.00932478386502, 0.0935087134036, -0.00175241087191, -0.120256838271, -0.0885239590387, 0.0153907722363, 0.0225289279958, -0.00992225933814, 0.134906202122, -0.0955264109072},
	{-0.00149061502666, -0.00178902494711, -0.0909063092772, -0.0440361294148, 0.147453822101, -0.243391112939, 0.0117794336083, -0.0789819690983, 0.0105063517402, 0.0507691748785, -0.242242080386, -0.0197576487193, 0.196451040804, 0.00327144673814, 0.182690030499, -0.299674289171, -0.107468532992, -0.190896267191, 0.00573009875376, -0.00663372501296, 0.0706328336163, -0.0118740852868, 0.00585036809359, -0.146643251455, -0.0398700807021, 0.0528335666449, -0.00680454797608, -0.186541578538, -0.0292621520851, 0.230752791122, -0.0126884606248, 0.0223520564538, 0.325353844608, -0.0115823665821, -0.0125498114477, -0.00707700101294, -0.175023464946, -0.14467288849, 0.122725495552, 0.162040883184, 0.333121817937, 0.162710087875, 0.00753814335235, -0.233970876052, -0.40588349716, 0.00640174493141, 0.0332323849233, 0.0252935998126, 0.167082752206, 0.255876605191, -0.218387298145, 0.0222920440919, -0.203305324791, -0.000455847954448, -0.052489271148, -0.0454062095103, -0.226599474204, -0.0840653559402, 0.00987540265419, 0.0113799134126, -0.21980358034, -0.00323996056783, 0.0911965480883, -0.2339423417, 0.253517036874, 0.156039741523, 0.112493853102, 0.0463762035312, -0.00841083112635, 0.110232342257, -0.0673923956673, -0.00748532105442, -0.100187211365, 0.257148060046, 0.0665125030664, 0.0516819592594, -0.00340447439685, -0.067558514635, 0.104346379848, 0.145976490123, -0.0222384309179, -0.146249444918, 0.0387406804498, -0.123979858453, -0.0587774297305, -0.0215009487105, 0.00752341857236, -0.0680768560937, -0.216566190924, -0.165143005718, 0.0665852310446, 0.17065401585, 0.011909530018, -0.0227246129952, 0.0632280146075, 0.00349968969131, -0.0676562492569, 0.00607162101903, 0.253235280546, 0.0840765791035},
	{-0.017490998473, 0.0199585220689, -0.0396686423869, -0.0914289288434, 0.129775416265, -0.194167944674, 0.00116730329944, 0.1340621822, -0.00847082792294, -0.0355781891317, -0.242421968159, 0.0060379406829, 0.121212785889, -0.00108195047029, -0.143712226996, -0.168294941419, 0.0283514773167, 0.0512108896533, -0.00177831091779, -0.00733239985896, -0.0728249838906, -0.0187549583925, -0.119369279962, -0.23191994084, -0.0633467487584, -0.0796002428332, -0.00410782136439, -0.146139263628, -0.0342650037531, 0.138020531564, 0.00287901917442, 0.104928979707, 0.237813326412, 0.144972963235, -0.000759654951664, 0.00232703693589, -0.044642199984, -0.20112747861, 0.129137634234, 0.111708859681, 0.146640694478, 0.17479016053, -0.00649826235472, -0.107877403243, -0.405277096518, 0.0855634999198, 0.0176924172286, -0.0575036059757, 0.228264300418, 0.141660137107, -0.0849341344043, -0.063368316614, -0.137936757089, -0.00163338925877, -0.0563142166105, 0.134875810586, -0.0786086853829, -0.0590225627096, -0.00456781150615, 0.00390853711296, -0.0283131453681, -0.00137924148525, 0.0664736932943, -0.184947115488, 0.0357401094943, 0.20800006029, 0.135386972685, 0.0377553652912, -0.0121702158478, 0.0136748541022, 0.18071329229, 0.00617976797045, -0.160765525694, 0.112419571798, -0.137522547379, 0.0141982982483, -0.00119482580049, -0.101945638648, 0.119694144119, 0.19230001483, -0.0159918367021, -0.0617569011937, -0.0150434144387, -0.317552723767, -0.0469266315067, -0.000477828606592, 0.00320308925047, 0.137249615994, 0.0322735926936, 0.0240578226182, 0.0279078972763, 0.0866586199637, -0.00483804024355, -0.0485305520101, 0.207838959828, 0.165092264752, 0.00366464096898, 0.00647043631493, 0.0947559702197, 0.0622540706698},
	{-0.00142829893, 0.0108676463829, 0.031445084791, 0.161367626658, 0.0118784825431, -0.0112112904078, 0.00227969726517, 0.0922699846644, -0.00397555854935, -0.0137444910977, -0.116492904483, -0.0143207966164, 0.066127795784, 0.00456623762036, -0.111914950571, -0.0176366110228, 0.132091794746, 0.0977082740231, 0.0792609735289, 0.0173915817478, -0.14092918661, -0.000622975013638, -0.105525863437, -0.0210371590941, -0.016918655109, -0.119288300917, -0.00830258609255, -0.0497343406894, 0.00510983843294, 0.0881787045235, -0.00653199756092, 0.0589492552917, 0.257103213858, 0.133088128274, -0.000481284581257, -0.00629655031637, -0.123071966269, 0.173881399841, -0.0469476153113, 0.00784741464883, 0.179625414666, -0.0718534299157, 0.0150615284574, -0.0172030883627, -0.222735397328, 0.225694715894, 0.158387997257, -0.203318289332, -0.0620598446986, 0.131797315449, -0.065001073438, -0.179987374357, 0.212530528907, -0.00446307906465, -0.0531464402033, -0.00130065538088, -0.0151093887078, -0.174817063659, -0.00284512693571, 0.000767189093229, -0.0886276106591, -0.00483475349676, -0.121803241582, -0.1946137624, 0.0594593607779, 0.247733723469, 0.0174455229463, 0.181008472655, 0.00749742880582, 0.0428903552028, -0.0716748468608, 0.00616529643107, -0.0736756906272, 0.228796664662, -0.0852792105169, 0.0359176138391, 0.0077461314959, 0.0144789049909, -0.0596883552114, -0.0518265633797, 0.00466531320877, 0.0147317699589, 0.198679953424, -0.25015306178, -0.00697488374172, -0.0151602725182, -0.0102991904772, -0.0114721140842, 0.0460244466035, 0.316094920613, 0.069079366569, 0.0135674981683, -0.00536902549316, -0.00507997696942, -0.0970066116375, 0.170479933707, -0.304088402311, 0.00447743868967, 0.0292190106251, -0.105242345776},
	{0.0244063075348, -0.0131988899449, 0.119681045288, 0.256623421374, 0.0795128623121, 0.0740730367762, 0.0113058806654, -0.113197415295, -0.000967199335243, 0.148330662382, -0.113747288648, -0.0177464465071, -0.108867962833, -0.0193362913745, 0.010507353432, 0.146560347095, 0.0212230325407, 0.167807357902, -0.0383374485799, -0.0230621886341, -0.0836953719327, 0.00882118621909, -0.11628246094, -0.00408749171053, 0.0378437183931, 0.00288967510703, -0.0117084361918, -0.0731089352262, -0.0215559836787, -0.236926861859, -0.00967115029966, -0.0269561832093, 0.0451268041624, 0.0779822732457, -0.0206498914535, -0.00865237891343, -0.076554334682, 0.208799040409, -0.0780472777291, -0.29991247986, 0.0620257406895, -0.251098999107, -0.0011819998625, 0.00409745529215, -0.331374404615, -0.0443106226196, 0.0583617951398, -0.173318204261, -0.0039653837866, 0.0408116663131, 0.148873013005, -0.0192007682069, -0.0415455446012, 0.0102409620701, 0.0243982378826, 0.0242062143563, 0.0164022992371, -0.14682004678, -0.00804322016631, -0.00370081866104, 0.0207538044061, -0.00503133453623, -0.00955992894455, -0.0897713668703, 0.0239581981966, 0.155547413789, 0.080870111565, 0.0546721830408, -0.0149853331253, 0.183545597537, -0.134688168494, -0.00681309171949, 0.0972091670617, 0.165211965577, 0.106095082161, 0.00750074630887, 0.00347714044555, 0.0561191955333, -0.176754381811, -0.00616918628591, -0.00109248636398, 0.109205120516, 0.0459031124116, -0.276781760789, 0.108135208387, 0.0105055064162, -0.0307984569307, 0.0323950465693, -0.000243175828026, 0.153139379042, -0.110204163432, 0.0733240780783, 0.000196702442593, -0.24509530644, -0.163787259146, -0.0670840106364, -0.280110688797, -0.00366522377965, 0.0859162278344, 0.0750041842189},
	{-0.00449600906232, 0.00328612036002, 0.00619291752183, 0.258872913721, -0.0171625113237, -0.0135216887493, -0.00819495816499, 0.0562270439924, -0.0162728353965, 0.0703377008877, -0.100484653303, 0.00307786321496, -0.0533796160752, -0.000962624192415, -0.031471120216, -0.0345287200939, 0.151655311306, 0.0485171934028, 0.0254602248948, -0.0296128459637, 0.0871186574818, -0.00905525905151, 0.14844710646, -0.0422848022248, 0.00112431840721, 0.206853853689, -0.0128011091386, -0.100835074136, 0.0136037305865, -0.597309459147, 0.00581826430108, 0.125622545881, -0.0863854739592, -0.0179933768216, -0.00165877700217, -0.00702489069858, 0.178810142264, -0.0582556052934, -0.00469646638132, -0.27106602809, 0.055991234293, -0.121826222428, -0.00811602598527, -0.104419845462, -0.10298251424, -0.0396347667394, 0.156687595356, -0.158334450364, 0.0876824549312, -0.0350877911853, 0.0287334691717, 0.0343953675459, -0.234683797649, 0.00452796635112, 0.00241837945853, 0.125390945953, -0.132129410924, -0.0619504198441, -0.00687658265356, -0.0204270149998, 0.0910410486779, -0.000393207586215, 0.0103181056488, -0.054404850164, 0.0194409211458, 0.0319568185609, -0.024072499308, -0.122580488986, 0.00864927377365, 0.140938999101, 0.00569787747516, 0.00244344570743, -0.126666108024, 0.0568414125927, 0.007207492835, 0.123405226931, -0.00437510679068, 0.0669119748962, 0.0773592396995, 0.0655614025946, -0.0139899488966, -0.0186121994979, -0.166750507009, -0.128449169086, 0.0872539573924, -0.00942945763885, -0.0115907220199, 0.0295024565723, -0.102012486905, 0.0798158294459, -0.0292512567819, 0.0854555548166, 0.00405632293215, -0.234904817024, -0.0238563908963, 0.0640722531945, 0.0951989017216, -0.0162992704661, -0.0810152562232, 0.0631437514485},
	{0.0129384824066, -0.0112261908339, -0.0958462203628, 0.091511425126, -0.224878972673, -0.0940746143247, -0.00257726242322, 0.196354360591, -0.0100324105636, 0.179594828047, -0.182127206733, 0.00261858445672, -0.0338489239379, -0.0102519893718, 0.0933273099266, -0.124069253317, 0.0877236050811, -0.340893019623, -0.0966142095149, -0.0174210529929, -0.16601878942, -0.0246348243307, 0.285715227855, 0.0724509923395, -0.0503453144292, 0.198141230714, -0.00918972889204, -0.152059663807, 0.181261070946, -0.29244895721, 0.00230049203512, 0.146536791475, 0.0125636338192, -0.220543836479, -0.0125048208421, 0.021001450162, 0.167287267991, -0.128369520181, -0.00288028460116, 0.139962231692, 0.167654748222, 0.0183150211288, 0.0132892353912, -0.11043824811, 0.0761023307604, 0.152515755832, 0.183922551072, 0.0047977180831, -0.0508584372946, -0.0643717108625, 0.0219562704215, 0.149774082235, -0.1233023128, -0.0102106761657, -0.00104493040207, -0.116513753383, 0.053193812231, 0.020766908508, -0.00701700280056, -0.015807912139, 0.232513809827, 0.00666527244137, 0.0655779044949, -0.163188247674, -0.0153824797544, 0.0786049121849, -0.0369821710765, 0.000337957438808, 0.00282982080873, 0.0708721274983, 0.331534553158, -0.00772813196828, -0.178467097546, 0.127711448453, -0.120476651434, -0.122048722624, 0.00235442065615, 0.0265670864039, 0.123062675036, -0.074322510087, -0.00344634710528, -0.274119833131, -0.147217171027, 0.169403657864, 0.132271307533, -0.0178296052548, -0.0202034699546, -0.0891098489008, -0.106230712059, 0.133636255096, -0.0238998432867, 0.229398924263, 0.00342736585371, -0.174499841204, -0.0241390435698, 0.178473994419, 0.0306499668288, 0.00924460293075, 0.0161364100823, 0.0922001713327},
	{0.0100804361012, -0.0154555215793, 0.00640875713523, -0.140309517816, -0.0575315374411, -0.152725609913, 0.0221657048682, 0.00139060615394, 0.00407053162701, 0.290249423796, -0.137648362348, -0.00423768264615, -0.0132444170748, -0.00776726977764, 0.0211856459817, -0.0324729811943, 0.009845304076, -0.229661398394, 0.0125396198167, -0.0124525435409, -0.239448700712, 0.0068194566752, 0.0722946613902, -0.195848915804, -0.0392528277431, -0.0530641170445, 0.00384018575769, -0.163153117987, 0.0347672343388, -0.235128452335, 0.00566852740757, 0.103940164521, 0.331735511258, -0.0600866842252, -0.00265714324938, 0.010069589898, -0.0264816347322, 0.0384100725893, 0.136599703868, -0.0156840074606, 0.192005784457, 0.111644114756, -0.000329264049396, -0.119087770918, -0.0595683507367, 0.188579597725, 0.171288633641, -0.00190014940661, -0.00402056966425, -0.0956175214323, 0.076468970119, 0.294314033699, 0.0373781246591, -0.00633168927626, -0.0718978625845, 0.328111058381, 0.171836415464, 0.186210388482, -0.0132748118214, 0.0111784676614, 0.0561204781683, -0.00352805370514, -0.122871008218, -0.323496176948, -0.0430588983721, 0.0850211114255, 0.335880334764, -0.130466853988, -0.00943879759429, 0.0412121090974, 0.307267301089, -0.0218496159509, -0.203614860574, 0.259183350008, -0.0217706821437, -0.0375945984905, -0.00113004145346, -0.148169371286, -0.127808353053, -0.0624974853216, -0.00287883597128, -0.137599010068, 0.0572080255034, -0.00149390656451, 0.207338536657, 0.0249543547745, -0.0370370523035, 0.0160691431163, -0.189893690667, 0.161544161936, 0.0381062931277, -0.0437242176493, -0.00372938044696, -0.336961197667, 0.0293200334647, 0.166333543592, -0.108418188429, 0.00753153325889, 0.107742005383, 0.140030304482},
	{0.00946434420982, 0.0077322821926, -0.0275682136888, -0.0289923239666, -0.123192896272, -0.14591802369, 0.0118296033441, -0.0406402381032, -0.027527946244, 0.0811033216111, -0.0709892707429, 0.0140218901575, 0.100808718871, -0.00752258580919, -0.0818736914401, -0.108878782615, -0.00363905783195, -0.0700788465289, -0.0594915227359, -0.00168159995112, -0.13633140581, 0.00320592378545, -0.0174285344421, -0.181397669496, 0.0345588211246, -0.0415054026711, -0.0161952518118, 0.0325022666584, 0.0276115090065, -0.038674667477, 0.000141194251424, 0.140585726015, 0.0444222691312, 0.103990911883, -0.021813489931, -0.00362079403895, 0.0329673359275, -0.0870691627912, 0.121378670547, -0.108299693464, 0.043684409773, 0.11960388872, -0.00956147018872, -0.278314983084, 0.15792047848, 0.152933278884, 0.0979180999562, 0.0556194208645, 0.0923717659254, -0.108204057294, 0.107390370666, -0.0211993280792, -0.0543781832665, -0.0027722718829, 0.0201890212158, 0.0174788943105, -0.29423387096, 0.191106737392, 0.00450176400003, -0.0254189034996, 0.189852758576, -0.00857021702408, 0.219097371064, -0.200907778558, -0.151789372545, -0.0266407425742, 0.0110374672123, -0.0473497176488, -0.0109832725994, -0.00887130901826, -0.00905632857099, -0.0152181408328, 0.0633521417146, 0.172260140661, 0.078102347348, 0.0661387871466, -0.0175147547568, 0.0608460009815, 0.139121953379, 0.11348874086, -0.0237141157214, 0.0432029052178, 0.0243307273049, -0.0678797592824, 0.215369408569, 0.0231299083248, -0.000218597647774, 0.00530599759104, -0.0705454621251, 0.027916138322, -0.229376298902, 0.134343196087, -0.0249490318914, -0.374134377254, 0.0921173532641, 0.19569864757, -0.112583218231, 0.0132631674485, 0.0200911671243, 0.14495879292},
	{0.00474070114723, 0.0132370067325, 0.0369669717338, -0.183154051445, -0.14089396009, 0.121619448905, 0.0161859547205, -0.159633166148, -0.00971464074831, 0.106253861608, -0.0891157450087, -0.0135464213904, -0.0542356326908, -0.0165321858604, -0.101057897598, -0.0836048564392, -0.0389517662024, -0.0332359468089, 0.01927097928, -0.000414046055058, -0.211902007238, 0.00254036145317, 0.0154249508118, -0.0808900053629, 0.0343403975155, -0.129861114132, -0.0178780905252, -0.179389186171, 0.0920031828064, -0.1173838867, 0.00277859715635, 0.0579650433027, 0.215985457386, -0.0190791692432, -0.00497519411523, -0.00738881243368, 0.17946041361, -0.0455947789843, 0.137897092497, -0.078331212768, 0.147179457285, 0.0106343082354, 0.00133317925793, -0.0656638954456, -0.0500924571664, 0.227918719037, -0.0772954766482, -0.148175371165, -0.0327780421902, -0.1067156294, 0.0148712452079, -0.0646310536211, -0.000403242935892, -0.00108718466315, -0.02166445886, 0.0535325908402, 0.0807399129098, 0.225128158535, -0.005392038999, 0.00521402749702, -0.0210550973437, 0.0234243237566, -0.107633755038, 0.0055216402327, 0.156079366689, -0.173089250852, 0.235607640584, -0.0829744518224, 0.0018053485309, -0.104372862666, 0.0314531045579, 0.00767416625522, -0.12321522228, 0.146180093441, 0.183476918664, 0.162396239505, -0.00803540686831, 0.0310326019153, -0.0932990541806, 0.0484753800367, 0.0137151532788, -0.00347111608706, 0.0680580491225, 0.0415163005576, 0.109439089435, 0.01252074278, 0.0209401132156, -0.0185464660374, 0.0110687265239, 0.0840371451814, -0.0792514616467, -0.219223233714, -0.007755768719, -0.157075128117, -0.0484423437617, 0.134505726489, 0.10038311547, -0.00712173528526, 0.0783983279154, 0.18722419149},
	{-0.0155139686654, 0.00477798897111, 0.0156785494665, -0.138004903754, 0.0184114878563, 0.0596161896949, 0.00989874727001, -0.0402952219243, -0.00806310657339, 0.0505886184209, -0.119714303619, -0.00629853560457, 0.109783090278, 0.0227166264873, 0.0744789981319, -0.00876813002138, -0.065452201587, 0.0697923512464, -0.0290951113717, 0.00247136139646, -0.194867080877, 0.0138469703317, -0.000555002674979, 0.0463384671548, 0.0270949232145, -0.0734698460541, -0.000789889432274, -0.119595479354, 0.054385171373, -0.0683245602289, -0.0114020716333, 0.109837739642, 0.0335995839607, -0.0142416786299, -0.0197980061629, -0.00693733944906, -0.0098601591072, 0.0124171562268, 0.13430478092, -0.0445068825641, 0.0587746532182, 0.0623299630932, 0.00357394307709, 0.0647771662156, -0.0940640194461, 0.0360986122312, 0.0766273446839, 0.0380969043399, 0.0850819376284, 0.151837367177, 0.0406197179286, 0.0479159853558, -0.21102420822, -0.00410987416373, 0.0135659613927, 0.0732519871951, -0.0126991363183, 0.175298354592, 0.00139571942611, -0.00968625488194, 0.154748032234, -0.00887125908094, 0.0250014920013, -0.00096063738723, 0.283518054643, -0.112779727943, 0.0552495585662, 0.0276795611239, -0.00188422809507, 0.00833279450278, 0.0386475258783, 0.00846067815613, 0.0858979501419, 0.0574023079962, -0.0210394658392, -0.101381902413, -0.00420324981423, -0.0535842401005, 0.109991655245, 0.0067651135849, -0.0100536409892, 0.00555880257565, -0.0378870776692, -0.0749005402471, 0.043676508319, -0.0117988099983, -0.0123154732349, 0.0730392435814, 0.092099904913, -0.0149039043957, -0.0503244664168, -0.0612897229532, -0.0127266738004, -0.0882310157203, 0.127523182326, -0.0798909599273, 0.0274104783712, 0.00162976536931, 0.0602878377484, 0.117652410895},
	{-0.0100974717926, 0.0162061583952, 0.0224961667283, -0.0346628594026, 0.0844519891567, -0.23995250939, -0.0143781242252, 0.0732327059198, 0.000882704503709, -0.0275226391299, -0.0668114333044, -0.00426810217145, -0.0218953034579, -0.00215432800536, 0.0285434001324, -0.00737166423842, -0.0249114199817, -0.120174093029, 0.0595023243392, -0.015177794084, -0.218630469507, 0.000210386969595, -0.0551657536085, -0.207025331815, -0.0529506125059, -0.112130783595, -0.00736048629778, -0.0648027903273, -0.0313745909016, -0.0765813899041, -0.00367527958039, 0.0873612285586, 0.246245282989, -0.0484737270249, -0.00138665009598, -0.0106009984514, -0.00237995229048, -0.119759521461, -0.00859131564141, 0.188006153216, 0.183893340778, 0.143198306472, 0.00574325056099, -0.166927789085, 0.0373472793336, 0.104434515196, 0.164327577351, -0.0292760387387, -0.0709452158407, 0.218763931944, 0.0288005154842, 0.015830302187, -0.00678487662466, -0.0176985356133, -0.00470780092723, -0.0782769762592, -0.0454445937192, -0.0946533613242, -0.013150839422, -0.00440291180467, -0.220093720759, 0.0134896524862, -0.0381006284592, -0.135470388163, -0.0251712748209, -0.0933917733161, 0.217499031643, -0.17101879616, -0.0104104752665, -0.081650432703, 0.0367451240405, -0.00781889506279, -0.12256345667, 0.115281656521, 0.0250658187189, 0.12705033137, -0.00932878084278, 0.0109958266125, 0.177388404738, 0.225849994541, -0.000272933398181, 0.106874388583, 0.0035064407628, -0.0807243421226, -0.139751557749, -0.0105499414322, -0.0304353752568, -0.0323788048398, -0.231532510328, 0.0127381988002, 0.0423080437946, -0.120678658519, -0.00446601662247, 0.0438030028237, 0.104531797045, 0.0106755363313, -0.0732530790331, -0.00275155951545, -0.0697749394302, -0.105970809969},
	{0.00973066485485, -0.00837022423456, 0.112734136407, -0.204424329982, 0.0315652139721, -0.081675307776, 0.0156600160724, -0.25230510358, -0.00330974776456, 0.0229987626172, 0.0595880544325, 0.00329757007385, -0.184408417541, 0.00467959764768, -0.165785078204, 0.0476452927759, -0.0634599205328, 0.103375280264, 0.076651042678, -0.013765365184, -0.129638613629, 0.00956216383251, -0.0359521149242, -0.0373782381064, -0.0424724267608, -0.177266328813, -0.00631055929296, 0.165865003179, -0.154576712853, -0.0566825071777, 0.0138381314529, -0.0219347320011, 0.112456289902, 0.123551446788, -0.00633997398316, -0.00585561828567, -0.110500860907, -0.146938373909, -0.00182598396115, 0.175334462638, -0.0890434623155, 0.0996905137532, -0.00935383816624, -0.0252295747386, -0.00824870324439, -0.0202884993541, 0.112790575589, -0.160482393049, -0.0444324481301, -0.000827541591334, 0.011801980105, 0.0511546189597, -0.00991151366895, 0.00395742404854, -0.0427622041484, 0.0468937101535, -0.22333668554, 0.0423217688978, 0.000164562653714, -0.00936693557102, -0.184719860311, -0.0179388196886, -0.157517747599, -0.0827576410409, -0.0195716843276, -0.0456922857059, 0.245764925742, -0.0416843731243, -0.0116934008505, -0.0638253769201, -0.0720419929272, -0.00476924272496, -0.134407101036, 0.138486754201, 0.0569091460328, 0.0900963526646, -0.00260435181354, -0.112654697916, -0.0919343099728, 0.0878914201391, 0.0120165014368, 0.00755490573748, -0.0876582243958, -0.102953801055, 0.101475749103, -0.00905517614522, -0.00666770326963, -0.16225879288, -0.122354002627, -0.0167177722466, -0.0313048903966, -0.115733468516, 0.0106802312462, -0.013314888745, 0.013741198023, -0.0542880125867, 0.18339881362, 0.00213799452297, -0.0369680014237, -0.042459106369},
	{-0.00887747695901, -0.0158743824664, 0.0425379911805, -0.115133924173, 0.0779628256648, -0.0866077033131, 0.0132436157044, -0.0976389616593, -0.0111516135041, 0.0664487027642, 0.00360691130975, -0.00965742719656, -0.132545918008, -0.00835977432623, 0.0403014519754, -0.107596551787, -0.184309172268, -0.0308388725363, 0.152671600949, -0.0336970080838, -0.00411112874333, 0.00204002543389, -0.120358815949, -0.157914986389, -0.0367125928229, -0.301459574179, -0.0189109831871, 0.0406405186336, 0.0105673632351, 0.179040685405, -0.00515686629829, 0.0419919429828, 0.192372086102, 0.0139308556652, 0.00756196480862, -0.0241510085935, -0.0527070605929, -0.128715916633, 0.163964638809, 0.132913307179, 0.04471937899, 0.0758043395023, 0.0187949954284, -0.0931950627304, -0.0720438245421, -0.124633046924, -0.0534571360138, 0.0661966306818, 0.125587422806, 0.0569711831127, 0.0493159091086, -0.120832858967, -0.0904522372615, 0.00730365288946, -0.0679148880891, 0.0137291144254, -0.321221636515, -0.0825076658732, 0.0159233146858, 0.00247704977704, -0.0651141537975, -0.00365577133672, 0.000468103027954, -0.135160060256, 0.0903583677984, 0.0599161540527, 0.0967213616081, 0.0887262854816, -0.00827999945332, -0.0670974239195, -0.0285819325729, -0.0104192635178, -0.0969171880457, -0.0158041122774, 0.0823221357369, 0.0249919587791, -0.00890494135276, -0.0190301943748, 0.108268819768, 0.077335133132, -0.0273159919862, 0.132202202458, -0.0626316944878, -0.0364789567347, 0.0403589629663, 0.0020069495893, -0.0239740179188, 0.0778579144832, -0.0693595979261, -0.0570394082135, -0.0187813744981, 0.0408737830028, -0.00989104584352, 0.0793439250986, 0.121236937892, -0.0841066931407, 0.0979317085144, 0.00312600652281, 0.0131704386594, 0.237019016116},
	{-0.00584369205767, -0.0460032223194, 0.0463904415294, 0.00138740810059, 0.129514877624, -0.0804039599993, -0.013293077102, 0.00594052928739, -0.00408531405613, 0.0992878432916, -0.0853521264245, -0.0261634200794, -0.209983929666, -0.00928562621012, -0.00608072471225, 0.0391926030013, -0.112182276159, 0.243250206324, -0.0374489895793, 0.0141767572803, -0.0971317860016, -0.0033070222648, 0.00755815855743, -0.130149652524, -0.0640579344648, -0.161242438099, -0.00256236574271, 0.0987018648139, -0.0498637389305, 0.0483778955108, -0.0077428093965, -0.0150512690301, -0.010001472651, -0.0301591078977, -0.000226584158932, -0.024757388686, -0.166814977296, -0.0201808058524, 0.101768812716, -0.0316447853967, 0.0302594943501, -0.018631512712, 0.00700971996957, 0.115887066968, -0.00315528541318, -0.146943345563, -0.140734650685, 0.0872666452673, 0.0122000549414, 0.0880168996585, 0.0575096638664, -0.144664757466, -0.0383535368056, -0.0163952945246, -0.0948449319636, -0.0443248644527, -0.0807156209433, 0.00473724894642, -0.00591061747406, 0.00236538587296, 0.00674381523064, -0.0012724207422, 0.156962646574, -0.134968994001, -0.0999475822131, 0.187208768679, -0.010173605372, 0.231722096958, -0.00819090298182, -0.057049612246, 0.112954474091, -0.013298089961, -0.110372979948, 0.0567529973582, -0.0540251601356, -0.133137071962, -0.0113151723804, 0.0424827408875, -0.105653355541, -0.116919873288, -0.00689940539124, 0.144960368414, 0.0730689436337, -0.153511595883, -0.0737499206758, 0.0136507858427, -0.0135456791055, 0.0769685475451, 0.0162518842408, 0.0890215534308, -0.0850457518067, 0.166091800419, -0.0126209121366, -0.113088888528, -0.0665821506644, -0.0145891741643, 0.137061341936, 0.0169117848046, 0.179916946328, 0.116647366976},
	{0.00391901961837, -0.0346155728978, 0.0379252302997, -0.0347033042648, -0.085332544329, -0.101865897524, 0.00927934220068, 0.00927452876669, -0.00893644165194, -0.0512918004848, -0.0206064151646, -0.0108212144671, -0.17193776154, -0.0188033538168, -0.0391476270165, -0.0831534156012, -0.0400201517238, 0.0734491571292, -0.00663049562702, 0.0105291720296, -0.0923095303666, -0.0165982731368, 0.0727586552141, -0.014221603249, -0.0107877103509, 0.0503226095908, 0.00280406968551, -0.0403355988996, -0.01004404799, -0.0743927759108, -0.00453804265638, -0.0933215374966, 0.116749907062, 0.0507991384037, -0.00422178305742, -0.00654889701306, -0.130767771912, -0.0179277927451, -0.0572751969696, -0.110546825445, 0.16552618145, 0.0479366841806, -0.0232778048135, -0.0491537811768, -0.0808994531598, 0.117225342311, -0.053439672916, -0.024402793964, -0.0502393608905, -0.0195830484136, 0.0246984854412, 0.0373417224077, 0.173641274661, -0.00176675446915, -0.0332333434683, -0.0837968603348, -0.0350039114835, -0.0453815733471, 0.000611130949017, 0.00540349559397, -0.118946642463, 0.00154884625639, 0.10636282384, -0.155637169603, 0.0295223217457, 0.244516114781, 0.0480677582173, 0.113740504003, -0.00899160479378, 0.0803778819482, 0.0097317299447, -0.0145223085598, -0.145030688562, 0.149369469363, 0.0803528749042, 0.124130425545, 0.0146635965839, 0.0173554176258, -0.21531353217, -0.0132735524032, 0.00393710582446, 0.0671781458974, 0.141627202404, -0.0870153090072, -0.103995974434, 0.0249478265552, -0.0387536920501, -0.0542027286117, -0.0316181875579, 0.0558067694269, 0.0451701410324, 0.00623465764882, -0.00958869634316, -0.0128679447411, -0.0839571134369, 0.151239503043, -0.0962697040228, 0.000771984736668, 0.00692437643034, 0.0800899338452},
	{-0.0226895508905, -0.00408991367766, -0.0928913859153, 0.0921676919015, -0.0850790873351, 0.00472755364731, -0.0106401027103, -0.164734638644, -0.0171177084706, 0.0365793216422, -0.00214527536124, -0.00496160724617, -0.0119561179516, -0.000297057887611, -0.0446671013742, -0.10688828346, 0.112053701159, 0.043393486974, 0.0782199095139, 0.01218314316, -0.0123841561234, 0.00226362229059, 0.0261307626812, -0.152754539218, 0.0209937901198, -0.000159072404852, 0.000537050191226, -0.0913421851522, -0.0604912026227, -0.0839291461322, 0.015340285769, -0.084126720513, 0.11933226527, 0.0822601994698, -0.00225923240492, -0.0240761438645, -0.0656745778339, -0.145619116216, -0.150270755438, -0.00632292673154, 0.052329257797, 0.0131835797791, -0.00268400636024, -0.199920097153, -0.106968186378, 0.0390188403977, -0.0234592955141, 0.0300068219663, 0.0857605922088, -0.0678318882731, -0.0828677133567, 0.162296232211, 0.167617518809, -0.0017639366519, -0.000988803171094, -0.161549791886, 0.08377460928, -0.138107763495, -0.00186465579593, -0.0163860175078, -0.137068542648, -0.0131643251667, 0.162815835885, -0.105023196742, -0.0563869446053, 0.174555693665, 0.0802798062795, 0.0543378320696, -0.00538489192862, 0.168292222811, -0.0570114788551, 0.00362516265899, -0.16020315088, 0.150935362871, 0.0457288493385, 0.191756465524, -0.00682757151347, -0.109642858633, -0.153715421149, 0.0635793568584, -0.0166577586307, 0.00585206819395, 0.0203723789533, -0.149788147771, -0.011177255499, -0.00791307775729, -0.0387751683119, 0.0589083965663, -0.100863817026, 0.217174179447, 0.0810322045174, 0.0849325889138, -0.0263784343183, 0.0546461910132, -0.119863172711, 0.181911117332, -0.214175086083, -0.0115600452885, -0.142594696378, -0.040906689421},
	{-0.0164764141284, 0.00843799254705, -0.251633041726, 0.236449331438, 0.0129575466868, -0.0265507463261, -0.012613121138, -0.10776053849, 0.00917492601538, -0.0458722130973, -0.0908101535017, 0.00213483013177, 0.0505401290515, 0.000782559262385, -0.0102793494226, 0.0436641476297, 0.273661986443, 0.0979898967905, 0.12222973251, -0.0110236983229, -0.0624802424716, -0.0240510478895, 0.00350866093029, -0.0733487730189, 0.0347830546261, 0.0433729249751, -0.0111168889902, -0.0604782037227, 0.0754960962337, -0.22847055087, -0.00184253414096, 0.024207437754, 0.235976500583, 0.107417757178, -0.00327973415261, -0.0115669291747, -0.0485497261494, -0.0358013653199, -0.144050690337, 0.0110571854366, 0.165450412906, -0.204221983495, -0.00415941704331, -0.097520769189, -0.100159959475, -0.124505485473, 0.108020911467, -0.291687464444, -0.0610003489727, 0.220096169915, -0.146667950945, 0.103792953068, -0.0873388806869, -0.00571097326062, -0.0214814186868, -0.0400737194431, -0.0162234035416, -0.0817326362136, 0.00963782059128, 0.00418613603827, -0.162737831319, -0.00813766647752, -0.194534717308, -0.234550383992, -0.0384394337209, 0.13155606511, 0.12217414634, -0.00729125733387, -0.00516788064782, 0.104373064776, -0.0448053024193, -0.00834457074496, -0.31857237073, 0.204898953576, 0.149610371601, 0.373260943092, -0.0200278067433, 0.0013666894455, -0.124248168582, 0.0370577124085, 0.000283621677798, -0.108202330859, 0.184701759633, 0.0567011677689, -0.0643586047414, -0.0182147009889, -0.0249706168458, 0.0616671583534, -0.0278402646142, 0.195370427911, 0.204214873857, 0.0981681391353, 0.0152109258795, 0.000164416166746, -0.247880244545, 0.139674305402, 0.0731439988831, -0.00755008916048, -0.00460925345099, -0.0972834375685},
	{0.0116918132581, -0.0145308869603, 0.121160241897, 0.213531062977, -0.236488375213, -0.137726962335, -0.0126759309033, -0.112418018326, -0.0107637283181, -0.0113388086106, -0.0695854447841, 0.0044129221295, -0.0841983451723, -0.0187982218566, -0.00459575481025, -0.0310161818171, 0.265723827387, -0.0647738272327, -0.0173928816098, -0.0306734645345, -0.122841246917, -0.00996784704641, 0.192518001694, -0.000240651004049, -0.00277320526529, 0.322092100879, -0.0254713079021, -0.201825020624, 0.165931381351, -0.479933206761, -0.00125018758308, 0.103345795385, 0.06181413392, -0.054491703842, -0.0123076452345, 0.0150496650239, 0.0174023188897, -0.101589895499, -0.150532086509, -0.00861773315755, 0.193866616089, 0.112130804942, 0.00820909469797, -0.129777628735, 0.0847612783842, -0.0585778007878, -0.0275895480999, -0.143808307307, -0.0528293418132, 0.173197853197, 0.0460249111758, 0.147641010807, -0.16761114777, 0.00263421520514, -0.0140389869289, -0.286927007191, -0.207617735745, -0.0788438072814, -0.0249569298941, 0.013699064591, 0.00119307964283, 0.00523014899515, 0.0715598423081, -0.183351528076, 0.0185560816106, 0.215170531991, -0.102117159157, -0.0276972810022, -0.0169201909398, 0.265550361931, -0.0316381383934, -0.0120093178776, -0.296321335804, 0.197345152298, 0.180132710411, 0.29548436866, -0.0145977487402, 0.181927317487, -0.013535158798, -0.00717333079802, -0.00477320777735, -0.154521629046, 0.016095544461, 0.175673217963, 0.0549336842068, -0.00543004814615, -0.030123243206, -0.0414226019131, -0.141531990268, 0.0193555157875, 0.0365137626999, 0.185235967006, -0.00530011134743, -0.214339957471, -0.230876928253, 0.156851110895, 0.0350385431275, 0.00406228554293, -0.0938415814296, 0.0969874287873},
	{0.000215982887936, 0.0162887226215, -0.0840120621945, 0.0712892363621, -0.149371802152, -0.231175697803, -0.0153619239625, -0.0596848024221, 0.000836430439388, 0.0116563161363, -0.162826297677, -0.00457226206878, 0.123273037837, 0.00718126536092, 0.00918637415884, -0.075864462144, 0.332897113386, -0.340488740491, 0.0471479500583, -0.0094562757292, -0.175078721408, -0.00366920451631, 0.272056292938, -0.153663409075, -0.0329035794357, 0.282953977261, 0.0036664659018, -0.221135897538, 0.0860618352177, -0.32044309524, -0.0107619086949, 0.0614131679841, 0.326995407213, -0.02861873667, -0.00289969731765, -0.011879014995, 0.0589604784083, -0.124834156741, -0.100168719035, -0.211678250407, 0.277277256485, 0.164022591213, 0.00320083940345, -0.260527443029, -0.126416635782, 0.0695008703544, -0.00302132486204, -0.261192256015, -0.052271742874, 0.0124704412302, -0.163147109129, 0.0457131325956, -0.0283061576512, 0.00107545253337, -0.00530803463927, -0.16259131923, -0.0246428035274, 0.0658017005905, -0.0319180197486, 0.000817957498121, -0.179630320416, -0.00137504342545, 0.0112709515655, -0.062715833713, 0.0954358777683, 0.181575442037, 0.0337938472413, -0.151763884121, 0.00576344289968, 0.0387441005222, -0.111502903644, -0.012460546804, -0.34108008781, 0.0906027381773, 0.271679733214, 0.421351413584, -0.00838121325032, 0.100864324631, -0.159556038886, 0.0931405283269, 0.00249728988438, -0.0111084642613, 0.0853589051256, 0.0194653697462, -0.0781344907211, 0.0101129044997, -0.0120978037577, 0.0133361228659, -0.256622109971, 0.0177536609913, 0.00641602630701, -0.0202451540692, -0.00912132465714, -0.427245548909, -0.113626188044, 0.266382362333, -0.128056221562, 0.0082022251362, 0.127460534695, -0.0108511758324},
	{-0.0028656319079, -0.0011804411964, -0.171168917053, 0.335784263214, -0.130814338458, -0.010428119557, -0.00827702318148, -0.0199039641355, -0.00145510734169, -0.215384184905, -0.214075764233, -0.00764971672442, 0.379085219391, -0.0119083098036, 0.298710038914, -0.0725159243485, 0.25371214007, -0.42807043323, 0.0108484663272, 0.00627153025136, -0.26081904482, -0.00668276888709, 0.253695472982, -0.0455138196904, -0.0274897249144, 0.176653453784, 0.0152372536419, -0.300622455781, 0.0924042337308, -0.198154442313, 0.0048636012174, 0.194718702128, 0.200403472643, -0.0841180260071, -0.00800684234121, 0.00332444668408, -0.0136556454827, 0.00155422104497, 0.00487950941951, -0.120575167694, 0.257615825561, -0.0508743792349, -0.0113084419996, -0.0349780310866, -0.0481150959072, -0.2376477318, 0.225131123522, -0.13128397847, 0.0402291822478, 0.103081487331, -0.0688848920967, 0.0225505815173, -0.190696398479, -0.00100307307633, -0.0306716877054, -0.152242205085, -0.0350628275621, -0.00706752853466, -0.00250206019181, 0.0167512185368, -0.0775968839375, -0.0112956709065, 0.0646770725668, -0.118168417738, 0.0733105126709, 0.029515883575, -0.036910775471, -0.182800957413, -0.000189287994137, 0.0509299630544, -0.0786272709578, -6.1597701557e-05, -0.0623067732931, -0.124372548503, 0.137303507527, 0.185479567962, 0.0163536319067, 0.101825295654, 0.0926713110379, 0.0600226551493, -0.00183634255797, 0.167748930437, 0.101255730623, 0.195030040736, -0.145709997818, 0.0165299525079, -0.0145073931664, 0.022694268542, -0.204285033933, -0.00403928133338, 0.0555663571677, 0.180346642776, -0.00476983790851, -0.245819416506, -0.220189753682, 0.10350182451, -0.0330528374214, -0.0053811301192, 0.068422984731, -0.0226383579147},
	{-0.00391357407638, -0.00497203858826, -0.21160673494, 0.036536556478, -0.22092941141, -0.0975805541881, -0.00350931466354, -0.0271533402373, 0.00213052810938, -0.0535091256338, -0.117857531555, -0.0144258859622, -0.0236957794824, -0.00688559950649, 0.0996177811522, -0.112941751518, 0.0570979575256, -0.272786573847, -0.0420950695424, -0.00742822037113, -0.0894999655343, -0.0158184600448, 0.138501375002, -0.00549610287871, -0.0310870667653, 0.152210559039, -0.0184510871518, -0.368975594938, 0.252449524591, -0.159370863663, 0.000792835751502, -0.0246514464717, 0.193672972793, -0.222869508099, 0.00514412868608, -0.00014627959848, -0.129249184327, 0.0390103071578, 0.037792082681, 0.0363843158496, 0.174797411918, 0.16281792706, -0.00870281211859, 0.0104887734956, 0.128210754381, -0.0780367016193, 0.0308669995125, -0.0619411782271, -0.152488812958, -0.103325701647, 0.0173383310769, 0.000166322070726, -0.0310024263652, 0.00220966873234, -0.0585041626248, -0.257849039869, -0.00082400917895, 0.120433132935, -0.0126407182489, 0.00279389223336, -0.00792464789446, 0.0113579092267, -0.0426216834314, -0.0655644582259, 0.17050958773, -0.168335383702, 0.0828395382705, -0.132920168543, -0.00256590497666, 0.128724217525, -0.262359270034, 0.00367075954959, -0.18381673103, -0.174878762975, 0.319972249849, 0.317241777506, 0.00441063933464, 0.22149653271, -0.0870054854336, -0.0641567980975, -0.000141459659075, -0.179702226712, -0.0497746363554, 0.263447084772, 0.0425545894493, 0.0187140118064, -0.00549071538641, -0.0713870497712, 0.0154856731805, -0.13144405764, 0.123936972389, -0.141544875288, -0.013995268948, -0.237048023899, -0.10869700035, 0.165106945503, -0.0354657075361, -0.00866409672104, -0.0398747331662, 0.0652736755029},
	{-0.0112602995051, 0.0324809776783, -0.113070135619, 0.147230376866, -0.176849305704, -0.186148087322, -0.0184865447462, 0.24885249801, -0.0066308843963, 0.013583986768, -0.124511179669, -0.00730167435446, 0.0151997639269, -0.00409018865918, 0.237307127033, 0.102571400812, -0.299208136361, -0.111071086956, 0.0661957293239, 0.0113791520368, -0.228021612624, -0.0142716482996, 0.00130718180582, 0.32235616468, 0.0303283829172, 0.136404079545, -0.0136076771963, -0.349562967153, 0.254173775833, -0.141446415719, -0.0152169671599, 0.177239445854, 0.0910037201666, -0.075752280746, -0.0124897845192, 0.00332266406299, -0.140038502016, -0.00604575384288, 0.198545970238, -0.203339324288, 0.155579174163, 0.165747248982, 0.0085146023372, -0.019323223205, -0.0225547014427, 0.0432406202398, 0.182812707906, -0.0328646518744, -0.0259502142454, 0.0936541060851, 0.158695345713, 0.00443229940927, -0.358314962263, -0.0106874607111, -0.0414738919383, -0.0968302486878, 0.00364469471642, 0.336707656526, -0.000794143339885, 0.00582576210592, 0.360865229894, 0.00668648602988, -0.00916499672414, 0.104612782383, 0.17862127186, -0.245252341253, -0.0500851815831, -0.152471439826, -0.000496800212328, 0.0214667680368, -0.0292074609959, 0.00575871979122, 0.209096567262, -0.0801702368396, 0.100026091817, -0.0242744580971, 0.00655342237178, -0.0646373942299, 0.411029681816, -0.0660687926959, -0.0160371262121, -0.092431302202, -0.159993614789, 0.105809792966, -0.0971115842472, 0.022128979412, -0.0147516887579, 0.00137172708985, 0.183494918709, 0.0354849807582, -0.0577351032039, -0.0646912564711, -0.013443795937, -0.20514001346, 0.157768461728, -0.164016875225, -0.10869193818, -0.00230156320994, 0.0189337730028, 0.240042052251},
	{0.00332506661677, -0.0241325059209, 0.0817240227482, -0.0189617365023, -0.0640858787219, -0.135256658486, -0.014665270673, -0.0721112139141, 0.0108175289997, -0.0966847407707, -0.0455558233189, 0.00699394874088, 0.171353408922, 0.00668024109112, 0.0544863715979, -0.097641221862, -0.117156458172, -0.0833245505973, 0.12442646152, -0.0236975072546, -0.1998242992, 0.00382500155424, -0.0886943998483, -0.120854759863, -0.0318127548946, -0.0988097292317, 0.00226904211382, -0.0391495865818, -0.0561533604379, 0.0167538958797, 0.0106975606129, -0.0415461969358, 0.235218795081, -0.0378072441729, -0.00254242199314, 0.00919436977877, -0.15930808524, -0.11062223614, 0.0343627277023, 0.0653642531745, 0.25373294332, 0.0324863834875, 0.0186122418055, -0.0354792455396, -0.0113537908092, 0.0327723867109, -0.00742085613107, 0.102819687059, 0.00793079312726, 0.254056485766, 0.0413577705226, 0.0157069105424, -0.0804378194298, -0.00335992486496, -0.0438563872259, -0.338352815634, -0.0772193868305, -0.0955992082753, 0.0147206355035, -0.00676775248925, -0.221361560108, -0.0070272009882, 0.0774768254939, -0.338055349099, 0.189830053189, 0.199392464212, 0.000725845389293, 0.0321269104363, 0.00857343939858, -0.163805654384, -0.253080634559, -0.00797351925753, -0.0293833223461, 0.0620944906164, 0.0877264528019, 0.10591663211, -0.0161886593826, -0.0905427794921, 0.126449216782, 0.0842446505827, -0.00555216464503, -0.0259920652236, 0.190671024257, -0.0373396707098, -0.191567666683, -0.00081259706231, -0.0171043871919, 0.0877077590582, -0.176922848748, 0.0369918261801, -0.0535158287678, -0.0222080739453, -0.0149325311434, 0.0569520231989, -0.0996759595474, -0.0617514211936, 0.00469442273123, -0.00532673217557, 0.0920605053704, -0.146099335179},
	{-0.00952340903597, -0.00899610107506, 0.0194363403391, -0.118468547783, -0.000511110636676, 0.0646007122965, 0.000352109437134, -0.104397196541, -0.0141756561746, 0.155411335352, 0.109250246717, -0.000260397184178, -0.0459289774912, -0.0212163356556, -0.138721556803, 0.167718341242, -0.193694484794, 0.0162265135019, 0.00688168552886, -0.0311623866472, -0.0140498970923, -0.00101882916556, 0.0327478912218, -0.161312354854, -0.0335072548675, -0.242454514545, -0.0115365660177, 0.0963626155021, -0.0638673755582, 0.0186771040364, 0.00490811199108, -0.0918372523904, -0.0664621178821, 0.080075825955, -0.00763325970849, -0.0249432303588, -0.281670950772, -0.127430660806, 0.0678495949976, 0.0220912091617, -0.0296439189513, 0.134736696739, -0.0150677055527, 0.159734699606, 0.0666629773532, 0.081553953721, 0.0594634393341, -0.0565836899739, -0.10830154356, 0.00978341564354, 0.00163796714756, -0.0685352484227, 0.10723428781, 0.0112066808033, -0.058487938616, 0.118414740689, -0.219836719721, 0.259885828823, 0.0224256403457, 0.00977470699337, 0.0799497452286, 0.000232449838388, -0.147839045796, 0.0503248406355, 0.128572105664, -0.049536691638, 0.0377033292714, -0.096212057636, -0.00293852677785, -0.0100853273662, -0.175779643641, 0.00343891285188, 0.127631757217, -0.0965857388211, 0.146857408998, 0.0347617424111, 0.00478120026753, 0.0675202043591, 0.1084402522, 0.0789423156374, -0.0216893823768, -0.0312230843417, -0.141749770086, -0.0786694204782, -0.0445430772595, -0.0313933551051, 0.00444580810332, 0.0155496171432, 0.0213255762553, -0.0667497919169, -0.157365717761, -0.15377466388, 0.0162806044301, -0.0876714429915, 0.0475735844015, -0.268220823319, 0.142125813585, -0.000612261212993, 0.0427248729085, -0.0290511105851},
	{0.00566282911346, -0.0329470343861, 0.0661052221236, -0.0795266907297, 0.0567689787068, 0.054581700199, -0.00118918725835, -0.0846513072101, 0.0171544312547, 0.114377859161, 0.0250441913947, -0.0229717419046, -0.164724976109, 0.000693052994732, -0.0462708533142, -0.000214621177713, -0.172538846243, 0.0595574825898, 0.0870595276287, -0.0350542444176, -0.0270268292922, -0.0144969436298, -0.039714142544, -0.197815448374, -0.0528622972378, -0.203605522504, -0.00138344944074, 0.0210291234362, -0.0869409223425, -0.0270055678273, 0.000178724570872, -0.0512422935068, -0.115720952693, 0.00871399457335, -0.00509184297735, -0.0388289152173, -0.186896408351, -0.131912071848, 0.20352872859, -0.00161916620949, -0.0910624888467, 0.0240083053007, 0.00116772088899, -0.000850105910576, 0.074214736485, 0.0775216525833, -0.0614890656265, 0.0330191633482, 0.167874265742, 0.0970611183455, 0.123834880527, -0.152589421581, 0.121294787958, -0.0125411574786, -0.0895774400348, -0.0430564482325, -0.298165839945, -0.090034010898, 0.0126141524381, 0.0101164819801, -0.0705588903169, -0.0195063101646, 0.0774719266425, -0.148711874252, 0.0754704465543, 0.113922155331, 0.0188624805418, -0.00997716978678, -0.0352117123038, -0.176250414658, 0.00346898705187, -0.0237084433188, 0.0190825201507, -0.00796390353349, 0.0442508148704, -0.0834017784583, 0.0015352473371, 0.0973172034219, 0.0408716455598, -0.0159448447418, -0.0159277690109, -0.0119227812306, -0.1142329981, -0.0453714987121, 0.201040712501, -0.0365709346788, -0.0187864511942, -0.0803886184757, -0.0235817527066, -0.0459052264255, -0.17859955484, -0.0432514750191, -0.020091619886, -0.0800535618527, 0.0497405386338, -0.136527896811, 0.208246576031, -0.00105103528525, 0.0543235467813, 0.251961772358},
	{-0.000741398391586, -0.0387409300486, 0.136845657509, -0.351500294166, 0.0327726408574, -0.0706807736168, -0.000514894643062, 0.0106653047157, -0.00430665763862, 0.0459894142458, -0.114436552993, -0.0125942168271, -0.214847325884, -0.0170713455727, -0.0296449853375, -0.0991915864906, -0.178015101758, 0.103518550436, -0.176040121056, -0.0354440743474, 0.0496644570085, 0.0128441364039, -0.0767013224761, 0.0388730020237, -0.054803939324, -0.0648838854133, -0.00550694084098, 0.0208029272063, 0.108055748811, -0.020010228944, -0.0130171547318, -0.0143984032509, 0.124820182099, -0.0104057887956, 0.0103677550597, -0.0361510315894, -0.162646958466, -0.0211687856182, 0.0894458248386, 0.154470607544, 0.0461099470509, 0.0763244992845, 0.00715813590081, -0.0896971725945, -0.0474748892513, -0.0231821657007, -0.118012105028, 0.0190853499774, 0.00855724895459, 0.0817581550533, 0.132656770633, -0.136877847101, 0.0547506644432, -0.000539245888758, -0.0638553176772, -0.0587531676379, -0.0914292316424, -0.0311607892541, -0.00655644066451, -0.000448109463187, -0.0240215968231, -0.0108138415399, 0.0346156274261, -0.0813107399947, -0.0269356188722, 0.124976871266, -0.0559226238242, 0.138875855103, -0.0204880891785, -0.208545820774, 0.0459553176442, -0.00934621726573, -0.133819074052, 0.0248394674878, -9.42653697587e-06, 0.0347733376308, -0.0185546439974, 0.150543751054, -0.167402690121, -0.0607202364877, -0.000323905110246, -0.0370591361662, 0.171220964121, 0.084012199038, 0.0898608978848, -0.0136355794014, -0.0158684317823, -0.12105887517, -0.021777716471, 0.0210135539782, -0.0256880390823, 0.0524317611639, -0.0211504344812, -0.155442994092, 0.0265341619568, 0.131317821734, 0.142091747581, -0.0105978918408, 0.0494862861289, 0.148283736577},
	{-0.00887910734414, -0.031290028144, 0.131456495785, -0.378193861758, -0.0997186187751, -0.142907500093, -0.00461697782053, 0.0116648636453, -0.0114954237698, -0.0135607265581, 0.0357839793329, -0.0083246797718, -0.174578403746, 0.00905412080147, -0.0228416703234, -0.0299334889317, -0.228586232637, 0.101336159772, -0.0882405989576, -0.0102734180176, 0.00912334572958, -0.0140606594374, -0.00114714991022, 0.00816547873887, -0.0407613774731, -0.0444488332478, 0.00489155768371, 0.119789556141, 0.109483926852, -0.0254976382161, -0.00586785996448, 0.0390594763267, 0.126627098608, 0.0394420145683, -0.00548835530813, -0.0051930251938, -0.121596046343, -0.12493285783, 0.021369053173, 0.0172477730122, 0.045039057036, 0.239572604278, 0.00804737615438, -0.027393913347, 0.0895444027273, 0.00778635102025, -0.104272089374, 0.0587835987557, -0.0665471255715, 0.0121292074146, 0.171302831664, 0.0598085292196, 0.0244788331085, 0.00387200930027, -0.068427955004, 0.0339300627636, 0.0138621824172, 0.0466767414604, -0.00538828603253, 0.00856336038629, 0.0367230667148, 0.00462936157818, 0.0758128437524, 0.079773279237, -0.0553151822088, 0.212899931312, 0.0631155320154, 0.13795172078, 0.00655091325265, 0.0268650882174, 0.0148199344887, 0.00792727818055, -0.190564944319, 0.0744138339657, 0.111216906774, 0.137318535888, -0.0129398519454, 0.145360350539, -0.0537539320945, 0.0411848808038, -0.00788147469952, 0.0637584553759, 0.0993911842602, -0.0630738726336, -0.0313989706919, -0.0140236224702, -0.0262173728165, -0.108536094297, 0.0014497270501, 0.0814682250651, 0.0223860412529, 0.0446298662271, -0.00521007038592, 0.00276585368322, 0.032695918111, 0.0847007511297, 0.0332290270624, -0.0165861619635, -0.0810393948751, 0.094517892703},
	{-0.00887343244788, -0.0205143715475, -0.204919662287, -0.118682616022, -0.0479306778205, -0.0422069524251, -0.0166147197726, 0.056676660909, -0.00509423394248, -0.016161810974, -0.0180268742065, 0.00261545796739, -0.0536461860447, 0.00280047585531, -0.114677439683, 0.00476647925709, -0.0823113139109, 0.0391902893946, 0.0455298517376, 0.0119136487763, -0.188416696486, -0.0186092334749, -0.0281892787156, -0.125225288324, 0.00235059722953, -0.0532284235546, -0.00617674552131, -0.0230623491202, 0.0752843297397, 0.130536015694, -0.000543351330345, 0.0021466160416, 0.0999866315574, 0.0780304648029, 0.00405164501556, -0.0212356241588, 0.0326249717396, -0.00591909776331, -0.125860741305, -0.112892733771, 0.164107896522, 0.0621814483137, 0.00362065375996, 0.0204733014351, -0.0622817963253, 0.0955764371011, -0.019429263997, 0.104295878022, -0.122698522324, -0.152945015334, -0.013972437557, 0.121178051582, 0.175064582475, -0.00683016001254, -0.0385717692126, -0.0598939226835, 0.101359875168, 0.0207056161129, -0.00745239441991, -0.00149658542499, -0.0186018872711, -0.00378128212976, 0.230992053492, 0.0227478660377, 0.0884289581479, 0.131058955524, 0.0502663867328, 0.144723623969, -0.0162768739651, 0.103394284378, -0.00820167755755, -0.000201205432832, -0.185766149792, -0.0949611528798, 0.143366963053, 0.126321307729, -0.00165782228425, 0.0843882891412, -0.00370468250347, 0.0171355769882, 0.00505419380336, -0.163264744774, 0.197303160912, -0.0488027033132, -0.157041259742, -0.021139119125, -0.0397051596636, 0.0453834800888, 0.00592532421729, 0.1435161766, 0.103737644818, 0.170072916204, -0.0100824583482, 0.0806574097581, -0.035023425761, 0.0403647398278, -0.225563169546, -4.27910120128e-06, -0.00211133421233, -0.0689810248534},
	{0.00846461980841, -0.0264775931898, -0.167732335539, 0.204044646662, -0.0510690183949, 0.0524842668171, 0.000203974574641, 0.0131295945274, 0.00231931200234, -0.0647771473714, 0.0445776841018, -0.0268125943032, 0.0274195653054, -0.00435729027045, 0.0273167672458, 0.0675360651845, 0.0260520182748, -0.0425850553044, -0.00544013597105, 0.00742676540622, 0.0180730806626, -0.0144115993953, -0.0110837552724, 0.0299825185476, -0.0177351347053, 0.0511042036642, -0.0298810783575, -0.0261196883678, 0.118207990682, 0.16103482029, -0.006913837734, -0.0211597191719, -0.00137125233136, 0.0160985449895, -0.00278703161643, -0.0145480882765, -0.0353842675089, 0.0694186364245, -0.0321998760646, -0.0640365348124, 0.115052637846, -0.262116695183, 0.00618710188653, 0.0518385433332, -0.114601453723, -0.000801553606375, -0.032153895673, -0.0120308081978, -0.239592743796, -0.00628289464918, -0.0191956603684, 0.0473417989066, -0.00968024623217, -0.00152226611255, -0.00733990657995, -0.0128767485698, -0.0216042078551, -0.102958876998, 0.0136495444092, 0.00135281915392, 0.0194325349205, -0.000120964625737, 0.00486330268014, -0.107733942694, 0.0688237507325, -0.18587856984, -0.0460659413666, 0.10265756158, -0.00210818327639, 0.0250020201591, -0.0605071324763, 0.00762848495575, -0.0232446415554, -0.0362778165932, 0.084360423862, 0.0753336194951, -0.0106769280305, 0.0892152100477, -0.00406378576826, -0.0175306009228, 0.00245543801341, -0.0649172407396, 0.203788470694, -0.00764903121067, -0.0667168334995, -0.0304976604175, -0.0323559394505, 0.0125989304585, 0.0764867834791, 0.0722953713296, 0.101296905446, 0.084752004241, -0.00810405741675, 0.08577925437, -0.0216040670437, -0.0148636367228, -0.122170585974, -0.00957835130973, 0.0543830461563, -0.0344865345331},
	{-0.00800497535218, -0.00773240802138, -0.0972110044823, 0.263916122412, -0.0260505853071, -0.0955506447458, -0.0116659074206, 0.0517707071072, 0.00544883393714, -0.0849716374327, 0.0364540495377, -0.00188814132674, 0.0903810503013, -0.00765120235294, 0.153265951543, -0.0269424034395, 0.17625109304, -0.0818328530174, 0.0368520804555, -0.0116130805742, -0.00759582268584, -0.00280476781645, 0.0116637545604, 0.120921346416, -0.00919582988482, 0.106667233196, 0.0123474860876, -0.0564017374048, 0.130343476233, 0.0913230574314, -0.00536158109914, -0.0878733552455, -0.0269023783129, 0.0356573184262, 0.015238769358, 0.00665519167903, -0.0570207788752, -0.01437643944, -0.135737510511, 0.015355849968, 0.0498004262956, -0.0246942443366, 0.0144649549472, -0.0106054437098, -0.10909605029, -0.106426868896, 0.0352948345606, 0.0666638221552, -0.0834079754593, 0.0542219522265, -0.0905719478328, -0.00374507030275, -0.0329527521569, -0.0128905676776, -0.033241317889, -0.0565858122311, -0.0798339857596, -0.150891714402, -0.00643796683638, -0.0113774604131, -0.00875970950453, -0.00666683624685, -0.0458304567223, 0.0244270509213, -0.124674738681, -0.218669125024, -0.101222688719, 0.0351541276489, -0.0051891905878, 0.153684440334, -0.042970434548, 0.0148504370265, -0.0687885632921, -0.0619783394882, 0.135226044962, 0.153193944925, -0.00341824214709, 0.0438019380452, 0.0136407106642, 0.0191611605715, -0.0032771546745, -0.0348829690679, 0.0728006839897, 0.0782891122427, -0.0186500337756, -0.00492890647425, -0.0261839246281, -0.0621379983852, -0.0172412306627, -0.113042485545, 0.161139674259, 0.122913397844, 0.00116885051167, 0.0705033043213, 0.0744013113163, 0.0148412623863, -0.110962815625, -0.00183135269069, -0.114059962992, -0.154926215121},
	{-0.0161317476882, 0.00526179057139, -0.0613405786774, 0.233359399034, 0.0962594856852, -0.321021070626, -0.00575426766304, 0.0620474292093, 0.0119172411109, -0.0295929788115, -0.0483453725123, -0.00630247089043, 0.148185378572, -0.00401486354067, 0.21585090271, 0.0224508448731, 0.194159165348, -0.212897603107, 0.0344858427109, -0.0273203478206, -0.186005518914, 0.00215201253912, 0.0278016990051, 0.298044957335, -0.0544765641893, 0.125280648289, -0.00660690257224, -0.115691778699, 0.186033183805, -0.0172655762375, -0.00223392511047, -0.00740282816795, 0.157222598599, 0.0546208351227, 0.001379701224, -0.0273602679436, 0.156585555002, -0.0657180636389, -0.0584088592566, 0.0523377725208, 0.0781400524463, -0.0254038862562, 0.000391213511547, -0.103158752802, -0.0488005255884, -0.0610752779482, 0.0738241255074, -0.0694436090866, -0.130827624365, -0.0301277526095, -0.143255625726, -0.0556054268189, -0.105053689678, -0.00361157631898, -0.0294453074924, -0.105552679006, -0.0111732100557, 0.0402897335809, -0.00344433510527, 0.00202958480455, 0.021677650431, -0.00115810865515, -0.138391167005, 0.122627152989, 0.0643344379626, -0.11506031271, -0.0118262001287, -0.105657636119, -0.00811337280413, -0.0225965877045, -0.198779853662, -0.0112118834691, 0.0211503302822, -0.222455393206, 0.135963125105, 0.114468420226, -0.0252602402759, 0.0176315909479, 0.0860823304867, 0.038122858859, -0.00567526962007, -0.0755691860139, -0.0107055246101, 0.21547822955, 0.0979037594141, 0.00893349405848, -0.018077202107, -0.00723346909161, 0.100171408596, -0.227469273296, 0.158881056229, 0.071349743038, -0.0173297438069, 0.0875582111827, 0.126106719667, 0.0388271232475, -0.176968251572, -0.00202880197091, 0.0636829948707, -0.116597987038},
	{-0.0160421002159, 0.00286965626986, -0.133921431352, 0.261186758354, -0.0336900186144, -0.0488903030451, -0.0151534410959, 0.115700617004, 0.0019560723416, -0.0176062513975, -0.136240770618, -0.00451124986713, 0.27571913756, -0.0163103365271, 0.0877113105204, 0.00543621066092, 0.112731164038, -0.146720967127, 0.0130524365746, -0.0179264830174, 0.00340692194658, -0.0181247944489, 0.0987403199367, 0.175312975369, -0.0375552117326, 0.0649188461692, -0.00630193498897, -0.147497116105, 0.147337811461, -0.0592799372619, -0.0153664876738, 0.00233887599774, 0.109949276812, -0.0170983174481, 0.00480997560884, 0.00579841599948, 0.205042495398, -0.124283963359, -0.0301310477196, -0.127920629059, 0.0845096170355, -0.0765564141853, 0.00600562835064, -0.149965246359, -0.203928813145, 0.00815908025611, 0.188556301352, -0.175639264644, -0.146793485554, -0.215858842521, -0.0594286359612, -0.140453307957, -0.205510321094, 0.00739137703652, -0.0351968963065, 0.0124111708547, -0.0378766791981, -0.00106529975013, 0.00471514382893, -0.00339510613731, 0.019518550983, -0.00630083978932, -0.211734079354, 0.0737628254712, -0.0801996700384, -0.0542797275313, 0.0301007526094, -0.107373196755, -0.00317847949719, -0.0600165260264, -0.103675724504, -0.00432747921835, 0.108899568737, -0.224791174956, 0.143519593359, 0.172546562899, -0.00885477893266, 0.0276711652558, 0.0284948860414, 0.0182044865593, -0.00221974285176, 0.14232654355, 0.0479293977606, 0.197770207954, -0.0621222296921, 0.0104082062595, -0.0274490609818, 0.0648056844006, 0.0609718428733, -0.0949211149497, 0.0387816562339, -0.0588409566651, -0.0226863789975, -0.0754477420883, -0.0853196481762, -0.104540558146, -0.239823154706, 0.00260532853223, 0.198891323123, -0.0712657561711},
	{0.00245328051694, 0.0228313596019, -0.0324961184503, 0.0510021904685, -0.358074901136, -0.0953464547834, 0.0129590065885, 0.158545777519, -0.00875063325769, -0.116274220309, -0.0117513288394, -0.000636937328253, -0.00393100267402, 0.0181660058528, -0.0495740097489, 0.0205898691347, 0.203487619221, -0.186309305906, -0.207902286126, 0.00295385705574, 0.12864498132, -0.00470191786321, 0.256630321752, 0.0256335933509, -0.0326444803696, 0.157606089428, 0.00245692684624, -0.0504504520641, 0.174592369125, -0.139672909736, -0.0056148628449, -0.143311150761, 0.0764295319167, -0.180291126212, 0.00871326942525, -0.0115971796531, -0.0206320821606, 0.0146431220854, -0.154481790172, -0.0412578158851, 0.093883288448, -0.101666785863, -0.0164900568158, -0.0219979632033, -0.0986413381296, -0.115812770432, -0.014730174763, -0.162195001426, -0.0792368369484, -0.367830141381, -0.035671569277, -0.195504513305, 0.187634024281, -0.00527303959443, -0.0380716705162, -0.306299246737, -0.0912286396588, 0.0743229472228, -0.00593991369625, 0.00100981427634, -0.0539622626298, 0.0161783579514, -0.133902348606, 0.00449333132281, 0.00271451661999, 0.00981848943981, -0.0500021367993, -0.0417803911102, -0.0153020572053, 0.0571981685634, -0.270617870735, -0.0040960519169, -0.0309360335412, -0.282231514921, 0.221296197931, 0.238976679827, -0.0151635485193, 0.084316797481, -0.0954032962274, -0.00648176105729, 0.0141857695834, 0.115619502527, -0.0771793151457, 0.218195664029, 0.070454594919, 0.00213006736431, -0.0163949715387, -0.101233090234, -0.00608729220309, -0.147905817108, 0.0791403605206, -0.0462043578733, 2.21059963667e-05, -0.268862961274, -0.0022416661294, 0.0234095266522, -0.225381533992, 0.0142009602031, 0.0266859483032, -0.050929651486},
	{-0.0194354011715, 0.00102578084464, -0.0206212580316, 0.0148808521559, -0.465392357024, -0.10559287341, -0.0161240562381, 0.0437537898009, -0.00650705458969, -0.0279307288104, 0.00854177807029, 0.00677094221295, 0.0316177062714, 0.00770911013494, 0.188730485592, 0.0344702882255, 0.0245365966633, 0.00280947663029, -0.0129138600673, 0.00971499077796, -0.0549349733469, -0.0026301903461, -0.0109947709783, 0.0168956022194, 0.0180800275691, -0.0580555570519, -0.00531357572995, -0.109286184161, 0.0777745609275, -0.160758827271, 0.00463325156036, 0.0861064918402, 0.0618819603573, 0.03671934042, -0.00368093799249, 0.0223285827685, 0.0681414979998, -0.0617196916603, 0.118347011232, -0.278756015147, 0.0179107949516, 0.0204982625485, -0.00324218092948, -0.0991048327334, -2.06625806098e-05, 0.0189925088472, -0.0151957707845, -0.13418091608, -0.0395129790263, -0.0909143701216, 0.163754132873, -0.0597070347452, -0.0154499453181, -0.00999000638362, -0.04506709832, 0.0150006758877, 0.033702888857, 0.0931142224549, -0.0154990432748, 0.0114760244535, 0.0174512282557, 0.00473694589254, -0.100481731672, 0.0608974794314, 0.222205294766, -0.036590190548, 0.0706559930513, -0.00170558121116, -0.00100003610049, 0.000240532618128, 0.012093406253, -0.0150168751642, -0.0159097684641, 0.0812480456927, 0.108291516299, 0.0630548144177, 0.00293565623032, 0.0300873996137, 0.0101487684619, 0.0121471162908, 0.00351184219487, 0.119191379055, -0.108938635048, 0.147192468601, -0.0983230489239, -0.0022336081323, -0.0015312028935, -0.00133695807034, -0.0284638896, 0.0459535654814, 0.0464104150474, -0.0735243811038, -0.016253463548, -0.0496700970184, 0.193997266974, -0.0349202258545, -0.00857194049171, -0.00718324271017, -0.0396085604676, 0.252594005834},
	{0.0121461842286, -0.0225831830359, 0.220421045156, -0.0951319576342, -0.0119526401292, -0.0191133214959, -0.0143207173958, 0.0410060067163, 0.00671736052661, -0.1457798269, -0.0197107539457, -0.000771112875426, -0.0445090726115, 0.00328373640135, 0.0571804699227, -0.0555821471369, -0.116805654671, -0.0363089579175, 0.07391646537, -0.0287224648486, -0.143364872969, -0.00236960299443, 0.0190815615807, -0.00348585032284, -0.0359151556773, -0.0969133205491, 0.0100113338261, -0.00271429851546, -0.0430581668305, 0.114214497382, -0.0214726783649, -0.00404737135802, -5.67078999297e-05, -0.165612929098, -0.000509157551832, 0.0224188937764, 0.00124884263255, 0.0526949260592, 0.105967336878, -0.101074587818, 0.121153310481, -0.0376456702811, 0.0014867512277, 0.0631993397382, -0.0378303449886, 0.071838924782, -0.0745733844524, 0.184887423918, 0.116959509187, 0.273856377163, 0.120316404691, -0.0129264034889, -0.00339395265848, -0.00739114021626, -0.033046502618, -0.228858819864, -0.145464740347, -0.131696577151, 0.00100288686961, -0.00227739831342, -0.0512988643359, 0.0129563571156, 0.115961157749, -0.14006861143, 0.18979894983, 0.221391044269, -0.0848432382492, 0.03187138753, 0.00179740105792, -0.0198146780579, -0.0711323684319, -0.00949015434976, 0.193059491117, -0.0529267451036, -0.0472588541052, -0.13247247999, -0.0033468001918, 0.0392829516866, 0.217978520466, -0.0977297511098, -0.00804402391572, 0.0242849358879, 0.0902532543574, 0.0245793417682, -0.116497530823, -0.021829598072, -0.0140674829052, -0.00186123808778, -0.162899398778, -0.123810636296, -0.140676466089, -0.160371243204, 0.00964483557305, 0.00519860934439, -0.0145380452639, -0.0934062789141, 0.159356246005, -0.0126691186646, 0.165001639115, -0.194645170383},
	{0.00832152804497, -0.0100741848084, 0.116604492694, -0.125415262557, 0.0939802138803, 0.0969154447466, -0.0190743453253, -0.0703819110933, -0.00652950951656, 0.0289332688542, 0.0938307663144, -0.0144313811509, -0.0249827663441, -0.00370258437671, -0.110676669559, 0.0640423353176, -0.0805000257009, 0.0149705195739, 0.0158753400531, -0.0310494567862, -0.00163621459502, -0.00566513187679, -0.0370763475321, -0.147544869447, -0.0485035481921, -0.245428245407, -0.000591923056329, 0.0553507222512, -0.0350319194882, 0.120511777861, -0.0135654839807, 0.0232959701016, -0.0169352544855, 0.0345465287918, -0.00572625343749, -0.0127518189031, -0.179970501532, -0.195236473134, -0.0158982140505, 0.0711739038367, -0.0199815382017, 0.00485680812138, 0.00220346572112, 0.0419636404882, 0.0532748254853, 0.133883110837, -0.134813032574, 0.108910114373, 0.0133908152266, 0.0529367217889, 0.0526920780348, -0.0486432660189, 0.0614336456508, 0.00161283980652, -0.0736317638833, 0.0924641923488, -0.265696461973, 0.0180899322021, 0.00986293199971, -0.011873338668, -0.0527666227306, 0.00741566507186, -0.0742211211844, 0.0665391099865, 0.102340980329, 0.0497289810682, 0.0231430554224, -0.0474470896323, -0.00245959292768, -0.166948375805, -0.208707011201, -0.0182029378976, 0.0995143431887, -0.115535107737, 0.164926541334, 0.0202588270153, 0.0156038916409, 0.00177892912882, 0.0839863954572, 0.00201253275697, -0.0264105212531, -0.0193875021208, -0.106044486447, 0.0390353799412, -0.0242833957158, -0.0208035511753, -0.0229653014869, 0.0509822369176, 0.0559083528431, -0.0535046748003, -0.250808773307, -0.194308831743, 0.0143858652567, 0.00891089964976, 0.0786953308483, -0.184983945284, 0.0307882934116, -0.0278241475394, 0.03100963829, -0.121937785098},
	{-0.0111219126789, -0.0149507431976, -0.040670772241, -0.205166376628, 0.00281482811898, 0.0203200348945, 0.00853337260477, -0.148496206027, 0.00639274899632, 0.133820704192, 0.133910594678, -0.0101485333442, -0.129191499646, 0.0184744678981, -0.0584954120787, 0.0674213687414, -0.219741046026, 0.0390487695752, 0.0150557306955, -0.0391860597961, -0.0844928534891, -0.0118266972068, -0.0911793925267, -0.112198009927, -0.0613450199827, -0.112196377303, -0.029523998097, 0.0545004548774, -0.0175244579903, -0.0221987338482, -0.00205856248116, 0.069021938002, -0.035618229091, -0.0287503449799, -0.00791057059615, -0.0275987896321, -0.330278233148, -0.150763383075, 0.287325903105, -0.0928757268826, -0.066684432576, -0.0491963763527, -0.0170743651811, 0.0577504852814, 0.200131236493, 0.116346468699, -0.0331844505339, -0.0185983938065, -0.0495358315151, 0.05625086037, 0.106359951184, -0.0585325220812, 0.0222980503756, -0.0130227276026, -0.0732841796458, 0.0424397480609, -0.237126066751, 0.00969455775341, 0.00915943243017, -0.0168426221048, 0.0310087781382, 0.00514144265578, -0.0844692912434, -0.0384743370138, 0.115330771565, 0.0444400288472, 0.0822321083515, -0.067332863575, 0.00692055674856, -0.155546977466, -0.0418402333428, 0.0297746208961, 0.0788544702109, 0.0483250239612, 0.133005585868, -0.0405130684851, -0.00261071819814, 0.0488321564418, 0.0515245263535, -0.053627256835, -0.0235494835211, -0.0765764449983, -0.0836195696585, -0.0693636937725, 0.103213482942, -0.0216769367929, -0.0244403846867, -0.0591601259995, 0.153351143166, -0.0592866558039, -0.178261977769, -0.0849598063842, 0.000944926400121, 0.0139924474541, 0.0674636910261, -0.272489447529, 0.122786351491, -0.000548778908374, 0.196460888896, 0.207080570158},
	{0.0139286917747, -0.0233954634289, 0.00927504959685, -0.324569905905, 0.0502728734159, -0.0667233008279, -0.00422158753138, -0.0492373501743, -0.0167600403882, 0.0349253006493, 0.0510929138078, -0.0166931103932, -0.180345446934, -0.0202868419894, -0.0918449748567, 0.0215468891108, -0.258351876168, -0.0136849329251, -0.13171486354, -0.0101368768281, -0.0525362914961, 0.00808750351616, -0.150255286234, -0.032837589612, -0.0450020932351, -0.142422817458, -0.00467699063753, 0.054940833635, 0.0873525627448, -0.0422548087009, -0.0071298825108, -0.0766203282585, 0.0422488836606, -0.0615940597449, 0.00272251084454, -0.0300639063469, -0.150048271016, -0.000401807787471, 0.260841578452, -0.0932436640489, -0.0279787507217, 0.0976264259419, -0.00697766129657, 0.0497687399988, 0.115836399005, 0.0213780587313, -0.0162853733717, 0.049445898869, 0.0648247437863, 0.0529568316966, 0.174238088656, -0.124575496597, 0.0076723451906, -0.00269594623983, -0.0450516077449, -0.0166900580349, -0.0755335718909, 0.0537646005443, -0.000647632464056, 0.00650315482753, 0.0394532005203, -0.00115337595448, -0.0334952248255, -0.0843754871289, 0.0848002122885, 0.0967395064627, -0.021964994232, 0.0426210573561, -0.00365411653727, -0.191936792186, -0.0258513484621, -0.0173553495605, 0.00951394492851, -0.0912867839076, 0.108097409608, -0.0264261628046, -0.0153260009814, 0.118396562505, 0.000623894401808, -0.0210702140529, -0.0219001104943, -0.0465840818816, 0.100682506204, -0.0102961004537, 0.0124130500949, 0.000601376340294, -0.00590653797813, 0.0476646143226, 0.0878322042209, -0.129168825934, -0.0799566992372, -0.0355201462157, -0.00921006210133, -0.0787580495998, 0.00535815492699, -0.0838184722095, 0.144454417696, 0.00212648948865, 0.129498904529, 0.0579303005265},
	{-0.00733189568229, -0.010746117822, 0.171046092212, -0.365988638658, -0.0031500729772, -0.031131701687, -0.0127752532926, -0.0443271054116, -0.00357344031289, 0.127295454745, 0.0409111998843, 0.00416109563621, -0.216856531419, -0.0058809492442, -0.193911286813, 0.0780390274472, -0.248124433205, 0.0821649595321, -0.105777412823, -0.0362556093592, 0.104199980871, -0.0153985364392, -0.033804131915, 0.0771046922569, -0.0202250774237, -0.12132166537, -0.00347840811712, 0.123181845162, 0.126206634284, -0.0246006730831, -0.00343823673177, -0.0498685792503, -0.00998518025202, 0.0809407232081, -0.0191998083401, -0.0185064735479, 0.0468508735389, -0.0877532677116, 0.129969919688, 0.0371869838295, -0.0678335976022, 0.212876401979, 0.00734219156948, 0.0862436422628, 0.0662553531132, 0.0385346066621, -0.195356591618, 0.0315598301352, 0.105338306212, -0.159362989255, 0.105212684706, -0.109277854379, -0.00633007156714, -0.00160997004381, -0.068535257667, 0.0426681882719, 0.0657005047135, 0.212424141496, -0.0147282903297, -0.00618514144378, 0.0712255157367, -0.0118789457296, 0.0429405105094, 0.0988451260941, -0.155188497138, 0.16119604422, 0.0348340831547, 0.184475335282, -0.000675302856383, -0.14649044789, -0.0179575523346, 4.39776415774e-05, -0.0557587048157, -0.114205423828, 0.0634442363192, 0.00661246716109, 0.0044631433305, 0.19925457556, -0.0255836223218, -0.0159661242125, -0.0243914312691, 0.0120999136145, 0.0421050953913, 0.00670731124474, -9.76733329905e-05, -0.0233009256243, -0.0412438939838, 0.00103927795517, 0.0246931485543, -0.022281533756, -0.0662875509306, -0.142536480149, 0.00144104080279, -0.0640951366775, 0.0545764506947, -0.0323088494634, 0.0826384928686, -0.00188813027538, -0.0683154520937, 0.0709186009986},
	{0.00883707404501, -0.0636706569628, -0.0385481980467, -0.217079123002, -0.156777008374, 0.267434248268, -0.00150827720808, 0.106311601794, -0.00741977581653, 0.0576968788973, 0.0253429024658, -0.0093655907284, -0.110970358171, 0.00276053387537, -0.135254079542, 0.223622056769, -0.304866861492, 0.0564023591662, -0.134164708521, -0.0282026882859, -0.107429420347, -0.0241905010833, -0.089434797748, 0.122898780905, -0.0317912833679, 0.00998347179119, -0.0210174928111, -0.0394143469583, 0.125241249839, 0.159042292107, -0.0102846398639, -0.066795428301, -0.0944239666785, 0.0836609421893, -0.00875053380748, -0.0199086103811, -0.0578534719564, 0.199149854357, -0.0183272872081, -0.0990551092537, 0.0195262856164, 0.0235662555753, 0.000324321075647, 0.18192778819, -0.0796445241301, 0.106349498478, -0.127961376856, 0.0466772942911, -0.222390510776, -0.259659712767, -0.0312567502055, -0.00509584194382, 0.196149634481, -0.0091446550906, -0.043386582072, 0.0491139345979, 0.154772265926, 0.220678675782, 0.00841765209369, 0.00792429587941, 0.111213658912, -0.00298068072768, 0.0825184828501, 0.204554392051, -0.020667796833, -0.0800215977048, -0.0188409609086, 0.133098695153, 0.00516346935501, -0.0447733676627, -0.0152708861977, -0.00391302026959, 0.142895065148, -0.167854887128, 0.0735924284233, -0.0757140819377, 0.00227421431632, 0.192160674641, 0.0906587892248, -0.0504369617383, -0.0230564953839, 0.0306121631283, 0.134990146183, 0.0252086742899, -0.00393895774876, -0.0226395680777, -0.0413918791384, -0.0131200620154, 0.16235670271, -0.0547052222701, 0.0174839257244, 0.0686554427647, -0.0118561245604, -0.0823679246276, 0.201572197362, -0.0815971864259, -0.165377059863, -0.00935706433576, 0.0620391425389, 0.0371875319206},
	{-0.00619327723981, -0.0598008370812, -0.0880670329115, 0.0245285790765, -0.209892729481, 0.277676082492, -0.0317659047314, 0.00466325332613, -0.0117608945912, 0.0168284813552, -0.015158060726, 0.00725377262849, -0.0333032773554, 0.00252742054652, 0.00392183976971, 0.058518085555, -0.0869309944236, -0.0278986032824, -0.170982830726, -0.00145178487473, -0.0472787700425, -0.00261805877931, 0.0286298588057, 0.00371286676258, -0.0140607379289, 0.0856675253259, -0.0116559898728, -0.208611535739, 0.150592084077, 0.123103990536, 0.00168319701753, -0.00303325232797, -0.0384098616182, -0.0348368179666, 0.00294806676634, -0.00421412692803, -0.121944709687, 0.0734208283735, -0.0356213570848, -0.00175279335676, 0.0596028103883, -0.115506671341, -0.0175497166474, 0.069563248223, -0.0603121740216, 0.120316182097, 0.0216009322603, -0.0697775575954, -0.296384337223, 0.0389284981477, -0.0553052647324, 0.127639578412, 0.0439133007464, 0.00736692365724, -0.0260604940639, -0.0604460061002, -0.00168082558734, 0.0391541293594, -0.0161034000689, 0.00739443964013, 0.0279501721069, -0.00870230494849, 0.0831100699656, 0.0276179929665, 0.121737731304, -0.181306784389, -0.0813540881997, -0.0175019210548, -0.02458508132, -0.0123693454824, -0.100181867232, -0.0272438595551, -0.0151785875018, -0.0255696641716, 0.0642685020086, 0.0322881979815, -0.00264763250379, 0.201046743398, -0.0189753549703, -0.112626021011, -0.0127446317206, -0.0396690337696, 0.259848950946, -0.0469818456002, 0.0498175554639, -0.017149929216, -0.0367687034537, -0.0443445416436, 0.0298059429486, 0.0914204585289, 0.0400471759499, 0.191168205832, 0.00232031337769, -0.0960884131627, 0.01937904338, 0.029759927987, -0.0203005433746, -0.00832256391931, -0.0419072384755, -0.0505313751457},
	{0.0110834711329, -0.0246991911359, 0.0163914955789, 0.248308314876, -0.0594737846868, 0.112012026101, -0.00190860312449, 0.0203372983834, -0.00516784939998, -0.121648262605, 0.00860929870871, -0.00390635377445, 0.0988142073701, -0.00155515733319, 0.127100309963, 0.0591204888664, 0.146593680109, -0.0483856075586, -0.161176293824, 0.00557267555971, -0.0751800437772, -0.00849779144055, 0.18278418216, 0.183076189365, -0.0233844319645, 0.0755133729841, -0.000992342842849, -0.0734178176811, 0.15345984438, 0.0500137670712, -0.00456040107312, 0.0111743197306, -0.129279875287, -0.0382129946742, -0.0171699015509, -0.0177285610962, -0.124543080149, -0.0391936534924, -0.100048044799, 0.0486886513665, 0.0174072371353, -0.0720591994932, -0.00918385258904, 0.0312368479265, -0.0565110412924, -0.115466740801, 0.10798347452, -0.0397422381141, -0.16053179747, -0.0152551354327, 0.0492567545408, -0.00666591993845, -0.0447640310001, -0.00252628518763, -0.032992605963, -0.114963042086, -0.0149312712622, -0.0919487777266, -0.00481832700422, 0.00237871466683, 0.0332983981353, -0.000534072829455, 0.0674813286767, 0.0319686397008, -0.0312943451881, -0.0395336637122, -0.166142045463, 0.117489350824, 0.00516691204563, 0.136483088865, -0.238534913969, -0.00881610340802, 0.05693301898, -0.182292979041, 0.124243478516, 0.0825310437039, 0.0093782024953, 0.213979305145, 0.0633951608263, -0.0839877452285, -0.00855542679301, 0.066430003769, 0.146239258797, -0.0605213570389, 0.0210328100126, -0.0208845684685, -0.0211712056719, -0.112301059981, 0.0316651384055, -0.154799825203, 0.0498895611755, 0.234322732002, -0.00400489640653, -0.00332857595477, -0.00415292761534, -0.109690879254, 0.0665662085913, -0.00556305957711, -0.0096816094334, -0.0856414746263},
	{-0.00453229462998, -0.0210837381359, 0.100147663638, 0.186213810763, 0.0376768681527, 0.00367288098862, -0.0126480495297, 0.0260548405627, 0.00558174199721, -0.145250208593, -0.0234876430573, 0.0157310199705, 0.113745951924, -0.00740042746598, 0.143519741091, -0.00418038503439, 0.0433385654114, -0.108125788906, -0.0544463693754, -0.049982560451, -0.0880564339456, -0.0093944438996, 0.129965051913, 0.340545788835, 0.00655001806621, 0.1312057438, 0.0028639475691, -0.110942326263, 0.226183526672, -0.0127199384816, 0.00136331389074, 0.117085248596, -0.0416968825154, -0.0256356164706, -0.011719869593, -0.0125389544659, -0.0616019500063, -0.0415077608249, -0.0775453117161, 0.0957316565329, 0.0285035025479, -0.055658910043, -0.00279568669063, 0.0658421982081, -0.021382311623, -0.0637453687159, 0.0744650581843, -0.0473182382345, -0.163988457696, -0.0686134995194, 0.0803173170749, -0.146075965155, -0.0212934008766, 0.00809633877863, -0.0230457064072, -0.081062759813, -0.0931393763604, -0.0739295177222, -0.00184601159184, -0.0119960138682, 0.106378792173, 0.0111134039977, -0.0528446713048, 0.187048924027, -0.00547584691413, -0.0604549071585, -0.180576739313, -0.0146982529463, -0.00259126961208, -0.0410652224763, -0.339608334417, 0.00650957574502, 0.101705772733, -0.300657862781, 0.0830415748169, -0.0120801265468, 0.00840516888569, 0.152245063718, 0.116495117079, 0.0801679251263, -0.0217221384467, 0.0574287651541, 0.00989721367792, 0.16577346641, 0.126015373242, 0.0145702690557, -0.0266085186339, -0.194316073566, 0.108588083205, -0.147380430231, -0.0407415571014, 0.237867638373, -0.011167610079, 0.0752989443067, 0.102756619317, -0.06723338307, -0.258010278762, -0.011023195911, 0.0604832030802, 0.0111796822973},
	{-0.00471907828705, -0.00756763786965, 0.105659030877, 0.202657029771, -0.0525551838912, -0.0168117518044, -0.0247939451219, 0.0105734738638, -0.00364197640319, -0.120766410756, -0.105074107815, 0.0154514857286, 0.0752624258936, -0.00465419545914, -0.0754476291948, -0.0153947023333, -0.0531982972782, -0.0321372580501, -0.0157685410713, -0.00719907390284, -0.0709891494369, 0.0161624592633, 0.193219353768, 0.076679872982, -0.0111783391363, 0.228353901517, -0.00766478255617, -0.109774509435, 0.10953365109, -0.0260261386317, -0.00613333419004, -0.147721797711, 0.00752570766095, 0.109409893853, -0.00769472589774, -0.0143790411857, 0.0198674289369, -0.0520099005799, -0.0361098000702, -0.0792114495136, 0.0664093942904, -0.00528056722036, -0.0204974208139, 0.0283323527677, -0.0547249423066, 0.0646211600979, 0.0467963083104, -0.10851869504, -0.173034230074, -0.273244136363, 0.0221723968777, -0.146140150729, -0.0602846968998, 0.000647837927504, -0.0402719582599, -0.120094542034, -0.174023556066, 0.0393012566256, 0.017108360563, 0.00518626610753, 0.0591084413859, -0.00735783225588, -0.000832344318217, 0.104441151529, -0.0469746121139, -0.028088553749, -0.174247588759, -0.125542339527, -0.000788290296117, -0.138242106103, -0.180249725337, -0.0068154699567, -0.0342375879587, -0.135391236601, 0.0966152065197, 0.108364532635, -0.00463746372974, 0.154225747288, 0.0544884622521, 0.0527532590647, -0.0127268806266, -0.0482705482741, -0.0714305629463, 0.162926654171, 0.15923001115, -0.0115654506265, -0.0283794017456, -0.122994383762, 0.0333853396634, -0.128270923891, -0.168981872722, 0.0792913183079, -0.00241157733236, -0.0196335072608, -0.104589997227, 0.0298601700534, -0.237645760607, -0.0147619808471, 0.0547400984973, -0.0706310499209},
	{-0.00528536525692, 0.0100036444412, -0.156163446622, 0.190664972029, -0.25558874181, 0.0734143157372, 0.0199199210699, 0.0984641055372, -0.0023435450387, -0.000500776754675, -0.0680877515433, -0.00896061925636, 0.26080092986, 0.00242668172121, 0.0386306400621, 0.0144257389128, 0.106524728215, -0.241316029325, -0.161566920134, 0.0127181980176, -0.047593154768, -0.000993280289523, 0.23277102153, 0.146364767558, -0.0224322209639, 0.143107633685, 0.00225844644664, -0.275700209753, 0.044170042601, -0.00664992984023, -0.000377059488126, 0.0882284667073, 0.0435384871186, 0.119397067393, 0.00885962409855, 0.00237510810074, 0.047085417037, 0.0571277397661, -0.0542662160658, -0.199996936562, 0.113557782933, -0.0690576103112, -0.0193576947679, -0.113613234328, -0.121153975929, -0.0458426562483, 0.0183684470038, -0.0205958250034, -0.13095383368, -0.0890032236484, -0.0679791517421, -0.20991460742, 0.0743252162234, -0.0167328688441, 0.0158160222145, -0.179560687297, 0.0766275934913, 0.148488778896, -0.00238852294211, -0.0065360029277, -0.0497267181733, -0.00128726858563, -0.0465158582986, 0.153114191788, 0.124237590163, -0.201454917312, -0.143519975751, -0.0169524133845, -0.00797972514763, -0.0422363121462, -0.270482614788, -0.00188929129059, 0.131233753981, -0.267760678479, 0.128827414374, 0.194953165968, 0.00788547136011, 0.00650553940259, 0.0462188715809, -0.0259155145416, 0.0029262842021, 0.190244773101, -0.237035087587, 0.136676514372, -0.0887338760734, -0.0152877574075, -0.0172779951039, -0.032965214997, 0.0729594302963, -0.123375884339, -0.146500476838, 0.22512872181, -0.024949469544, -0.0973028762498, 0.033067147474, -0.133121229918, -0.208085364431, -0.00495571868279, 0.135251601792, -0.109889961567},
	{-0.0113155472901, 0.00653890266642, 0.115449889104, -0.233392716897, -0.278747647373, 0.0689163516122, -0.00760967556216, -0.181940826205, 0.00202171422449, 0.130942991591, 0.181753175902, -0.0202488139938, -0.0610997232118, -0.000452785447025, -0.118113220042, 0.079239051553, 0.178359493335, -0.0397928428523, -0.326158949844, -0.0117567382293, 0.120739768328, 0.0128535136234, 0.177600565847, 0.119343626957, -0.0316300731423, -0.0750059828931, -0.000275123585378, -0.169021477319, 0.0233937754175, -0.356555467316, -0.00981255202941, -0.0286638195203, -0.0309970535654, 0.0866169836896, -0.0051605789886, -0.000435075218461, 0.203340928247, 0.00143918372301, -0.0430023368013, 0.167947739477, -0.0990048429511, 0.0774654184772, -0.00139103094744, 0.100340281159, 0.0627393246049, 0.0979001570589, -0.103126296825, -0.0300881567147, -0.129523285664, -0.221398366263, 0.0302195052529, -0.163602168819, 0.160711809897, -0.0127468582848, -0.020548341981, 0.0470648288673, -0.103476112285, 0.214113404064, 0.0088767830075, 0.0049656389515, 0.0461064419921, 0.0046657917564, -0.11439023031, 0.21332220651, 0.0619623950003, -0.232859415711, 0.0343149942193, -0.0962815794402, -0.00780188611232, 0.0208196231689, -0.204252646307, 0.00639028014005, -0.0908179562571, -0.209571365496, 0.133159472608, 0.131298427316, 0.000704826535648, 0.230110310268, -0.0768987073719, 0.0942133089815, 0.0187107514045, -0.146178226553, -0.185253433554, 0.075656056021, -0.0338449788477, 0.000619559763064, -0.011027788051, 0.0766331359829, 0.196216811891, -0.347680816067, -0.187403840571, 0.0247280905812, 0.0023555954319, -0.0123340219386, 0.137586834302, -0.0359736880561, -0.0111963218955, 0.000679139519541, 0.02151953566, 0.115331481187},
	{0.008262993932, 0.00785408558298, 0.133124409916, -0.157348112823, 0.0634933397407, -0.0936607630308, 0.00211933025852, -0.0317101174828, -0.0136117695082, -0.20090901615, 0.0323962082629, 0.000426369095542, 0.0181875967835, -0.013291026814, -0.115895596835, 0.110865514632, 0.0693084050225, -0.0189377793614, -0.0746814668913, -0.0111673138627, -0.196025878162, 0.0091580890926, -0.0911952934924, -0.0102583685516, -0.0264396792088, -0.13927838916, -0.0221783473474, 0.0816880633257, 0.0801848977497, 0.113739757631, -0.00445802684977, 0.0125371854638, 0.127907872393, -0.186253626339, -0.00289560621435, -0.00367111480652, -0.00234348628416, 0.202847534994, 0.207251955433, -0.258176271147, 0.0368345118576, -0.111001449109, -0.00529276043856, 0.0948616549669, -0.0528946522169, -0.0393584635781, -0.0682085497644, -0.209377501775, 0.110338502476, 0.031254643643, 0.108349233377, -0.274353265016, -0.202370931875, -0.00774040419354, -0.0221967671674, -0.16811721232, -0.0171258977878, -0.0674384016352, -0.0031037662132, 0.0137313140883, 0.00290811506598, -0.00156349964889, -0.078993042392, 0.00213245263364, 0.227205821109, 0.150798579141, 0.0212305385962, -0.0679303600696, 0.00239710581935, -0.00170200733485, -0.164379334695, 0.00319665630577, 0.153368300793, -0.0611751201809, 0.0817494796526, -0.119533286487, -0.000922150562627, 0.157577433204, -0.0232778950224, -0.170577513862, 0.0127737534891, 0.240176456324, 0.137146128123, 0.273041001781, -0.0596695391515, -0.0292021648832, 0.0161195963661, -0.177811068485, 0.104062069456, -0.255656927555, -0.222505646562, -0.32852875716, 0.00232374899081, 0.0417344849533, -0.0580656766075, -0.10121794744, 0.21223943125, 0.0128426401019, 0.156741227342, -0.236987739483},
	{-0.00822790161237, -0.0205165418149, 0.166154811076, -0.144962345346, 0.0676502014662, 0.0686562305343, -0.028310806409, -0.0889609337948, 0.0108773234808, -0.0190567779938, 0.0849162385515, -0.00700803954896, 0.0223608820072, -0.0131356183683, -0.0909252989728, -0.0262823780211, 0.00351112493336, -0.0720138411415, -0.1165735113, -0.0349129360002, -0.00212520915621, -0.00715466624974, -0.0803255225883, -0.0265039750625, -0.0365740737164, -0.225511273074, -0.0028372499731, 0.0223096107089, 0.0546636949761, 0.120991100848, -0.00315584328626, 0.0670998420068, 0.030730691742, -0.0514390291302, -0.0104573784865, -0.00543626115818, -0.133795965376, -0.0615748732675, 0.0154902135157, -0.0135980887955, -0.0291871011611, -0.0593483346628, 0.00593539011583, -0.0453632695947, 0.0543828946946, 0.187211484937, -0.229041944876, 0.113717681514, 0.171293920396, 0.0578981004111, 0.158136371602, -0.179879295853, -0.0149967730289, 0.0099744461733, -0.109253307668, -0.0354579669381, -0.293627951796, -0.0150343923868, -0.0105116261159, -0.0219027556737, -0.0429792582634, -0.000911815594059, -0.0360752753854, 0.079227129152, 0.189554359155, 0.107975334427, -0.0146620048679, -0.0576512533162, 0.00909134437425, -0.21576918532, -0.16689098413, -0.0152297156161, 0.0933222750674, -0.171614824174, 0.169651842789, 0.0454769683694, 0.00506508931149, -0.0690039208958, 0.0594089983686, -0.0561806428361, -0.0230845723131, 0.0214188345812, -0.0654548940927, 0.0404684598867, 0.000745384352294, -0.0361461800191, -0.00824270408813, 0.0709851589615, 0.062507582685, -0.190369677792, -0.260800064496, -0.111543189694, -0.00603364425716, -0.000148481391032, 0.00830911806442, -0.126219429934, 0.0727886871929, 0.00242644408278, 0.104797869282, -0.131645522754},
	{-0.0167813576397, -0.0114402334875, 0.101671422571, -0.196932307044, 0.0546684429045, 0.0784595850137, 0.000856300408195, -0.124741876281, -0.00754888556163, 0.131787654243, 0.0662543513503, 0.0147107351321, -0.152151046772, -0.0112759861879, -0.12959205259, 0.0106982117666, -0.107712439986, 0.0663683969432, -0.153691546351, -0.0284246265327, 0.0337040652954, -0.0106273676272, 0.0247608426719, -0.0968450290884, -0.0391101581725, -0.127710421512, -0.0136959773798, 0.0705006904818, 0.022395219816, -0.0297591887766, -0.000691777925207, 0.137299552042, -0.0792749724664, -0.024283919108, 0.0109760071559, 0.0052792725669, -0.147846350586, -0.109868663834, 0.210270327956, -0.00413749392322, -0.0894583131118, -0.102577529598, 0.000335629819247, -0.0104206415276, 0.277146141418, 0.241183755917, -0.156574817666, -0.0571067221829, -0.0265433128653, 0.0826855098711, 0.115970286686, -0.0777937349332, 0.201645639981, -0.0144709804293, -0.050034068035, 0.0359422046864, -0.159555998709, 0.0856686650825, -0.0164507463619, -0.00302461510011, 0.0690277760581, -0.0194422728121, -0.171007151838, 0.0558005796005, 0.0942789980496, 0.152847844493, -0.00237204296176, -0.235297668462, 0.0114692537255, -0.220533844472, -0.140175496636, -0.00313162774421, 0.0710106467925, -0.0168822577017, 0.100482953676, -0.061633741215, -0.0214533205729, 0.103563389099, 0.0371662176781, -0.141165864037, -0.00875173785791, -0.0931402561143, -0.11721439979, -0.0346428481284, 0.123522018387, 0.000650173857035, -0.0373297745198, -0.0252035574742, 0.119940848434, -0.059906865079, -0.228708128685, -0.10542413825, 0.000900565156957, -0.0522723189082, 0.00207969905229, -0.240501137057, 0.0924488529922, 0.0080972573799, 0.234855439906, 0.119280446997},
	{-0.0131252952694, -0.0150990197087, 0.0365105465381, -0.167205296806, 0.155578108298, 0.0430652926764, -0.0103897336978, 0.0233413195969, -0.0105162846169, 0.106284655981, 0.060580443438, -0.0238404483729, -0.147623769439, -0.019121326513, -0.140266467189, 0.0854740684053, -0.165632448213, 0.0144520780952, -0.0235909503467, -0.0284450696619, 0.0441665152608, -0.0251439274013, -0.143622425652, -0.0755285883419, -0.02963588967, -0.137973436858, 0.00347957710566, 0.0773586059987, 0.039648581068, 0.0116268229274, -0.00489405086247, 0.00573402034244, -0.0570340816367, -0.0378365555754, -0.0124988770511, -0.0214091281483, -0.0935812843804, -0.118816342777, 0.218312168918, -0.180652825777, -0.0804076351614, 0.0102927274845, -0.0113692475249, -0.0262922590619, 0.230610437447, 0.0977312690703, -0.057277851758, -0.043012694122, 0.0470447515119, 0.0432129973086, 0.0714840796418, -0.121883748225, 0.095173438928, -0.00109346007376, 0.00432325707431, 0.0295995642283, 0.0360771875012, 0.175080782424, -0.0163745272426, 0.0184490281913, 0.0464560873846, -0.00657807867111, -0.0905993385322, -0.0543393725703, 0.0324194787979, 0.157492299924, 0.020898194206, -0.0890836942964, 0.00399189392059, -0.2074265739, -0.0617071219016, 0.0078881716672, 0.139484563866, -0.0731290509136, 0.0604181347229, -0.0810207951926, -0.000464705564685, 0.0387320095912, -0.0146429943304, -0.0491400939218, -0.0251856644131, 0.00440082782158, -0.00589928715054, 0.0417828443745, -0.0291803259502, -0.0304937564969, -0.046337593768, 0.0766808372576, 0.111307070085, -0.0627359763523, -0.138522145535, -0.134012345922, -0.0164722277658, -0.0318987844253, 0.0940184384558, -0.144953627554, 0.116324786487, -0.0267748974289, 0.151251101627, 0.0258147236958},
	{-0.0052941986277, -0.030145108122, 0.0495832132207, -0.329313479656, -0.0328782171635, 0.121243098737, -0.00450718879984, 0.0665997864821, -0.0172877117521, 0.186439434347, 0.136242759516, -0.00395419822808, -0.187930935439, -0.0102269217353, -0.287316985846, 0.166755985067, -0.212235500821, -0.0416228532911, -0.0768045010646, -0.0279749499582, 0.109748430757, 0.00648456621607, -0.142140389877, 0.0874984963547, -0.0219937738434, 0.0325540482457, -0.00424369993614, 0.122764368845, 0.194038750438, -0.0267818107893, 0.00185349712408, -0.120616677085, -0.0288813655399, -0.0733900791865, -0.00438104219644, -0.0140362188207, 0.0864045749361, -0.0071985751701, 0.0871258622304, -0.0969959251841, 0.0323783853865, 0.0717509877649, -0.00661887423007, 0.114554196912, 0.0172930130887, 0.0280642657534, -0.108586773372, -0.096625423781, 0.122864605125, -0.232768080893, 0.154952480111, -0.196801543611, 0.198140662229, -0.0042668112701, -0.0317452316885, 0.117214277931, 0.265732533062, 0.245518641569, -0.0195278824025, -0.0147070297269, 0.0923078719265, -0.00664961934693, -0.117013135462, 0.069425615509, -0.0106077805995, 0.139633350871, 0.00302016186843, 0.102658910606, -0.00019727613495, -0.164421768943, -0.0729005411162, 0.00088307987352, 0.0733383652712, -0.0789250257322, 0.205771170578, 0.0390152244884, -0.00618370212085, 0.210502705056, -0.0338166413116, -0.0877060140012, -0.032867828091, -0.0409146632896, 0.146005227056, 0.0281447668205, -0.121518670442, -0.0306154952507, -0.0302749149206, 0.0366788970529, 0.125759764656, 0.0374282696431, -0.0486037312134, -0.218610082438, -0.0035620634418, -0.0926914915755, 0.0372932648677, -0.0143346394751, -0.0345473819338, -0.00542524418226, 0.0320285428838, 0.00777246710337},
	{0.00903065211388, -0.044205588366, -0.0597834475661, -0.263837897804, -0.308800970624, 0.246550729194, -0.0017039686953, 0.157227515841, 0.00175308759939, 0.0726683883997, 0.0625444872361, 0.00983644712519, 0.030071253307, -0.0164849440163, -0.198838801093, 0.292962113903, -0.25588370317, -0.0125786012368, -0.14472074496, -0.0266843704778, 0.0015548764331, 0.000337253597123, -0.205646122511, 0.0936141275213, -0.0494219577991, 0.130258179532, -0.0156613152816, 0.0498996745058, 0.150190514371, 0.106976289669, -0.0183451243075, -0.149049521124, -0.022724171663, 0.00673788068782, 0.0130998881307, -0.0175917861049, -0.0586301330455, 0.289315646605, -0.0234997606038, -0.161891146795, 0.0847955876211, 0.00943553314501, 0.00367103235706, 0.300591054006, -0.243658775276, 0.151518754753, 0.0898665736922, -0.00687654913797, -0.096246318629, -0.126855013238, 0.00695265621916, 0.0128795937497, 0.0923214326438, -0.00356891532536, -0.0233347144648, 0.161634802263, 0.212596232792, 0.173924465558, -0.00709045727593, 0.00670318523432, 0.0306823583425, -0.018019678533, -0.125853345746, 0.191521633333, 0.0784698758838, -0.0736343384473, -0.00220244537132, 0.184643180587, -0.0104238472941, -0.0439497224953, -0.109690017503, -0.0140045825924, 0.204838487421, -0.212967255923, 0.129582945432, -0.0622534195051, 0.00174561627753, 0.179746150197, 0.0607604240634, -0.087400506562, -0.0222098943909, -0.108565883943, 0.210918733267, -0.0185851840535, -0.131978576496, -0.0259731571959, -0.0415176039486, 0.123582733863, 0.161777557431, -0.0819982251514, 0.111306292774, -0.192982572236, -0.0212951628386, -0.0720018074472, 0.00277814347741, -0.028153878202, -0.291696780286, -0.00514442088925, 0.0588464962765, -0.0320585686553},
	{0.0115267157382, -0.0503914709691, -0.0345683963555, 0.135076758272, -0.0193210044168, 0.309403033892, -0.00693724695829, -0.00833676472138, 0.0127572940337, -0.060763741649, 0.0527131250148, 0.00346275700317, -0.0371754650129, -0.00894483791777, 0.0532181966525, 0.0773227925557, -0.168733982223, -0.121356383942, -0.0965130258946, -0.0124179677676, -0.00283249827979, -0.00785225626108, -0.116235434728, 0.0961457642341, -0.0328928206823, -0.100370577598, -0.00795041815895, -0.196780181199, 0.0958606120444, 0.229315304438, -0.0287124730345, -0.0773978752639, -0.130952493152, -0.179063946333, -0.0127099433784, -0.0229640009644, -0.119095767761, 0.279218914797, 0.0423131023613, -0.0433417050565, 0.0202718768162, -0.178149631016, -0.00509171215055, 0.265383331685, -0.0932579813776, 0.0886799820749, -0.0364310518999, 0.12434629039, -0.0286199014297, 0.0804775633305, -0.0227290920027, -0.0280737765606, 0.0387521472793, 0.000334733116796, -0.0251746742968, -0.183348745312, 0.0132627931872, 0.032370189112, -0.0191939318129, 0.0034859666017, -0.0241325079692, -0.0104144779178, 0.177614064913, -0.00781260077022, 0.229900083812, 0.0287501164421, -0.200902719453, 0.151387678526, -0.00838422123289, -0.0547857177419, -0.200115802738, -0.0122293394107, 0.240672233636, -0.194679399843, 0.0347876158453, -0.102012975518, 0.0169429824178, 0.252033598989, 0.135358778892, -0.0991341150542, 0.0136310810375, -0.0177551647807, 0.308114729126, 0.0565096101219, -0.152656789954, -0.0288071325025, -0.0178790255753, -0.00968868476781, 0.110934638495, -0.0127606062023, -0.0441758651282, 0.0246825955335, -0.0244590212832, -0.000567018561747, -0.0571462865244, -0.131548827779, -0.0740115322354, -0.00321468107797, 0.114886730197, -0.100528663421},
	{-0.00564024726645, -0.0447246844258, 0.150695748107, 0.0831873195661, -0.100363968559, 0.164467004428, 0.00482473860989, 0.00881593918577, 0.00325341906638, -0.0142045527674, 0.103149822391, -0.00765672994601, -0.0897479445269, 0.000689397015619, 0.0610363081494, 0.0177689730137, 0.0515593424836, -0.118633366879, -0.114064029365, -0.0387001930624, 0.00284496591553, -0.00683904001413, 0.0359930769711, 0.132278366936, -0.0171515289289, 0.0803173769865, -0.0214739474596, -0.0984658611402, 0.0576530496206, 0.097664993297, -0.018544807769, 0.044324617124, -0.160720666079, -0.0547826393021, -0.00904942464618, -0.00507384177696, -0.0743202681165, 0.0265451833252, -0.12819720759, 0.0577112183675, -0.0575630864438, -0.0696763919603, -0.016089206543, -0.0049522177364, -0.0756677740393, -0.056251168209, -0.0297903923224, 0.0296811219033, -0.0229273483432, -0.0147676584389, 0.126166803795, -0.0818171544083, -0.0255358168044, 0.00855209758478, -0.0613394911984, -0.202893851731, -0.140381613661, -0.025349723527, 0.00931667068408, -0.012259174049, 0.137292425271, 0.000646703144943, 0.215909067451, 0.0257068818208, 0.0433927223806, 0.0389864741684, -0.147572023942, 0.052337026077, 0.00210887487531, 0.0915151339214, -0.317857119143, -0.0133601533986, 0.109285050533, -0.0737475268385, 0.0593661941204, 0.0416710825544, 0.0184111460898, 0.258140775379, 0.130866046525, -0.0572109749134, -0.0104450428127, 0.145253974926, 0.0953850628111, -0.116337604418, -0.00899889139195, -0.0200125438, -0.0328509315238, -0.0967490411988, 0.0730034906294, 0.0597500479517, -0.0620639158278, 0.0476237137567, -0.011629242155, -0.0595742909879, 0.0610883590198, -0.117482195848, -0.00557148246406, -0.0081108949992, 0.0373918060636, -0.0208344806161},
	{0.00567382894897, -0.0131871945911, 0.243922153195, 0.0784370854509, 0.00967125299667, 0.0733532367105, -0.00635661525063, 0.00990400741083, -0.0105659185521, -0.118379111796, -0.0258658170062, 0.00162900582278, 0.0172122082067, -0.00744196311331, 0.00144897907147, -0.0624843922564, 0.179479396552, -0.110043042634, 0.0653366315659, -0.0127859525836, 0.0994406140632, 0.000874499086357, 0.160605447562, 0.120603863886, 0.0246429877472, 0.116962658626, -0.0197052526802, -0.099186382893, 0.0432988354318, 0.0203688830011, -0.00861553518446, 0.0686971927785, -0.0976189833016, -0.0729899351595, -0.00665793126426, -0.00146857142049, -0.129872330138, -0.0170544478527, -0.201861424217, 0.103535693811, -0.0424627024905, -0.0854990371748, -0.0220224345057, -0.0250713899081, -0.0451909734643, -0.120773358475, -0.0399726159804, 0.0888427461696, 0.0273947872978, -0.0226875309729, 0.0935519667444, -0.101409786288, 0.0910960988403, 0.000998104215288, 0.00992152929792, -0.118801650344, -0.119059594501, -0.134104182739, -0.00567909501164, 0.00900803260677, 0.0365297378397, -0.00329245271843, 0.113764353886, 0.232556499232, -0.0784876110071, 0.0309500100763, -0.165748942349, -0.0721652363969, 0.0129937554533, 0.113455461185, -0.319808043551, -0.00408597269926, 0.0915387448751, -0.155604473361, -0.0220447695168, -0.00260245945228, 0.00132414782074, 0.113322009118, 0.0662833591011, 0.0885667721974, 0.00463557497751, 0.168066068747, -0.05301756941, 0.012880190404, 0.00987117421486, 0.00131326012635, -0.0420487849136, -0.215713079301, -0.0241408489961, 0.0250844140098, -0.0019477346517, 0.0963221500505, -0.00226714734557, 0.0274990024369, -0.0208722529636, -0.0120151724421, -0.364908709901, -0.000962745244545, 0.0282315960701, -0.100677478328},
