// af2_weight.h
// 2017/12/02 21:16:11 by marsee

const float af2_fweight[100][10] = {
	{0.00459218575291, 0.00510421827823, 0.00876840988319, 0.00476248967864, -0.0015622853442, -0.00352279757483, -0.00395037529263, -0.00532799939856, 0.00599828603419, 0.00761866513149},
	{0.00630353140329, -0.00458605430038, 0.0503014867797, -0.00923843139018, -0.027719684036, 0.0187770449672, -0.0262789490865, -0.00777299730833, -0.04088408528, -0.021410213488},
	{0.016977059286, 0.076899803316, 0.169748750452, -0.310216438005, 0.0497839294043, 0.0218340914323, -0.0250347532903, 0.20233139409, -0.409685249545, 0.0552604492803},
	{0.103338453099, 0.129849948522, 0.114253122835, 0.18590015754, -0.62087639333, -0.30247723698, -0.373494240413, 0.0778130161164, -0.0166964697846, -0.00747148092671},
	{0.1180216823, -0.391431904102, -0.211028755109, -0.239075671615, -0.0855820461977, -0.0199743310273, 0.329447416887, 0.012448426777, -0.118488333914, 0.19002542673},
	{0.164608290267, 0.222907222599, -0.117201483901, -0.0367666266009, -0.200814963273, 0.0363441512102, -0.427441379216, 0.0942288029456, -0.174378376423, 0.113863168034},
	{-0.00596088006849, 0.00313179747709, 0.0124815321198, -0.00660334061317, 0.00935117163781, -0.00407078422902, -0.00564951832963, -0.00574820034466, 3.75353066902e-05, 0.010030445213},
	{-0.00735562736009, 0.0952277664692, 0.123032190307, 0.0635237213315, -0.49035093126, 0.0186335004657, -0.0349273488257, -0.114462320075, 0.0949126614432, -0.0109430095557},
	{-0.017273550817, 0.00415264029709, -0.00265396307109, -0.00445491630408, 0.00782793914445, 0.00884724885678, -0.00319368770804, 0.0154818787323, -0.0140486193647, 0.00440417833311},
	{-0.191813533624, 0.0833371547002, -0.131703188214, -0.226484918574, 0.149886956706, 0.134084185553, 0.0741671809481, -0.393738744004, 0.0930978458489, 0.0384783020128},
	{0.0448452913641, -0.245322145199, -0.1492859044, 0.0852217386955, 0.0390202549035, 0.0528221913155, -0.239467295815, 0.042372944563, -0.0140626437276, 0.0665530259692},
	{-0.00241891214997, 0.00370293915336, 0.011416119283, -0.0043107793922, 0.00423402840251, 0.00198285447645, -0.00152204168627, 0.0231540919806, -0.00513272617004, 0.0198116976777},
	{0.0241988575078, -0.17108079062, 0.0933721354455, 0.144195478201, -0.413355843521, 0.0180785602711, 0.113608850721, -0.281171957109, -0.0565778417998, 0.0418115209374},
	{0.0018550145455, -0.000467130211545, 0.000488921283633, -0.00815278070937, 9.13270964087e-05, 0.00683316551901, -0.00673319809222, 0.0131815795808, 0.0249007608504, -0.00662701609699},
	{-0.0981178145865, -0.0795569161659, 0.161838504376, 0.0905948871236, -0.309625046743, -0.359277022966, -0.0559945440378, 0.15509660441, 0.0239943616174, -0.12276578672},
	{-0.0222943503122, -0.0109933666364, -0.323229204985, 0.120299470958, -0.00310556973927, 0.0344816663864, -0.23151335773, -0.051469916239, 0.121609443052, 0.131370265626},
	{-0.012460795134, -0.135276589163, 0.165467624322, 0.0054173488414, 0.216985941569, -0.129310289512, -0.030082868909, -0.0194418199395, -0.374445660331, 0.149310547539},
	{-0.360369485487, 0.362634445663, -0.234481580447, 0.0484161657276, 0.114868510403, 0.160984958269, -0.146691105624, 0.0826129845999, -0.423817996922, 0.0962680459127},
	{-0.129643914575, -0.259475684524, -0.117031900584, 0.242382978372, 0.0254598744414, -0.0466299778356, 0.110911253136, 0.177784235457, -0.231646207985, -0.00644633924413},
	{-0.00441021554382, 0.022157261904, 0.0208870911674, 0.0384566838152, 0.00843181272839, -0.0333265369432, 0.00762709317688, -0.0181112381959, -0.0182019611464, -0.0271249829706},
	{0.122780880757, 0.0177846965751, 0.0632735284162, -0.0801141737926, 0.0184380390498, 0.0737414538674, -0.214137965801, 0.0809423322421, -0.65691230998, 0.139874103835},
	{0.00446507947914, 0.00576723687988, 7.60136380611e-05, 0.0101579617986, -0.00338933178245, 0.00923138185699, 0.0101318322215, 0.00546067618626, -0.00496073488455, -0.00379765933769},
	{0.260661340657, 0.178011649381, 0.0964114120597, -0.261586228026, 0.109479806844, -0.4383273655, 0.0216756328552, 0.235647612465, -0.231870650184, -0.126396811193},
	{0.0693776414711, -0.572960800901, -0.0440489426883, 0.00106849642389, -0.137864879381, 0.0752421000995, -0.0456707972791, -0.0855694311264, 0.138251851346, 0.125730952566},
	{-0.0708673302593, -0.0218767439929, -0.00244278842127, 0.00901633405198, 0.0561802075787, 0.00987523901388, 0.0507672110929, 0.0435198218707, -0.00496126297452, -0.0624281334069},
	{0.245929841641, 0.131971681448, 0.193140694424, 0.0495101329179, -0.098106264298, -0.244150071226, -0.193710836229, -0.0239703551796, 0.0160215059916, -0.346857329039},
	{0.0122330741936, 0.0126469787614, -0.0176009146076, -0.0100067499304, 0.0200575434706, -6.70076030737e-05, 0.0059218610003, 0.0293740016957, 0.0100327836374, -0.00196505635964},
	{-0.524035119345, -0.0670996377062, -0.169547206695, 0.157254429326, 0.0807440640826, 0.0861088471093, -0.540676181793, 0.0625306255601, -0.127224848194, 0.128094363752},
	{0.0324469427207, -0.141940120104, 0.0919453518251, -0.156286992272, 0.089945910356, -0.100550870815, -0.137946571537, -0.104401266371, 0.120192792317, 0.0511942655267},
	{0.247275040159, -0.245266396311, 0.140328227925, 0.0321921802383, -0.271493575592, -0.176277037316, 0.00154153623999, -0.0245727765863, -0.0778656770316, 0.179506113321},
	{-0.00912180278552, -0.0113624009205, -0.0161576563227, -0.000529088188461, -0.00868907358445, 0.000144552637022, -0.0082797256817, -0.010129253107, -0.00726722479485, -0.00766943522435},
	{-0.0434212369061, -0.414768139556, 0.088535208186, -0.187289533896, 0.0370374618636, 0.0599426176642, 0.130786341111, -0.117768387456, 0.0811949459156, 0.0425515736286},
	{-0.104422130094, -0.0314020411977, -0.00632797885823, 0.0799119810332, 0.103138923219, -0.182976653939, 0.128320964208, -0.176384671511, 0.0389506115274, 0.0171662214631},
	{0.175979001433, 0.0586561300273, -0.0417777332447, 0.0284127389896, -0.521019852128, 0.126021190323, 0.0326316554332, -0.305903436303, -0.139322399835, 0.0178622791704},
	{0.0022715707811, -0.0100058895475, -0.0136901342118, -0.0125928160876, 0.00503231786862, -0.00680788779727, 0.0028489815771, 0.00311927305908, 0.012531911789, 0.000917555796827},
	{-0.00585032615713, -0.0111679556674, -0.00215377230788, 0.0188511672294, -0.0149092832038, 0.00490999558578, 0.00726628395864, -0.000359672539008, -0.00418050067356, -0.0184604328441},
	{0.0606560782732, -0.22554868117, 0.115576540045, -0.26923825936, 0.16951007797, 0.0448533934143, 0.0980375196369, -0.629754103048, -0.094355503573, 0.0939614998039},
	{-0.0692507168464, 0.0917787143521, -0.0956214020675, -0.0147661149417, -0.116007922876, -0.128525760245, -0.395009769909, 0.106326277384, -0.00790163974848, 0.181558253558},
	{-0.0719089758085, -0.260966691325, -0.233161092735, -0.0980161224936, 0.0232577130228, 0.000567299125409, 0.162231421472, 0.0351448441245, 0.153988715259, 0.0441282673758},
	{-0.250440159868, -0.116992744831, 0.285046640297, -0.256595562429, 0.106834494045, -0.0628220320655, 0.0871342744275, 0.0769274175393, -0.252071372798, 0.0318524363583},
	{0.0370072939118, 0.0108389946643, 0.0829186786968, 0.00705650125513, -0.0128336341103, -0.2660394216, 0.0334006252413, -0.0628566785234, 0.117053475279, -0.08756801951},
	{-0.0386684537961, -0.0278079421884, 0.0262931621224, 0.00631946835679, 0.130793255835, 0.08133274839, 0.0387149971038, -0.16019091765, 0.0897902157338, -0.293016184098},
	{0.00458561582018, -0.0104032320187, -0.0141076944314, -0.01732335121, 0.0101998654577, 0.0187226291616, -0.0218571319019, -0.0137535714523, -0.0203110012856, -0.0161951482091},
	{-0.314374475121, 0.0635231301867, -0.174966219, -0.00314619303857, -0.0849211842488, 0.0560479116914, -0.336868470123, 0.0997107752112, 0.169951811802, 0.0586138789021},
	{-0.460709947049, -0.273127434685, -0.207966473028, 0.0421922591597, 0.107714713571, 0.145492788393, -0.320994991093, 0.0751859267809, 0.0855665405859, 0.0195169957656},
	{-0.236743702573, 0.0984631190303, 0.190247424158, -0.382159750966, 0.180212476349, 0.0345730829468, 0.00772268489095, -0.0782161285421, 0.0830105377207, -0.144494914329},
	{-0.0906158952505, 0.0183299567157, -0.0550132029959, 0.145959921463, -0.376254311026, 0.0602735068895, 0.11600412581, -0.179780773665, 0.0628006127849, -0.0601215967984},
	{-0.273190590355, 0.0209922369287, 0.155802931857, -0.00591850173564, -0.224668199143, 0.0862102651758, -0.439784015407, 0.150818369132, 0.0075188917612, -0.0325244451925},
	{0.0686793164412, -0.297405659211, -0.417108076775, 0.0904077795784, -0.152712999036, 0.100665831941, 0.0652186958267, 0.236988851034, -0.0807306283249, -0.120087343248},
	{0.0417372936969, 0.0296189321225, 0.0881720062883, -0.0406982169919, -0.324647613727, 0.00477966958994, 0.284614784632, 0.143920408989, -0.0671381235005, -0.433537521164},
	{0.0328176840798, 0.157677988736, -0.167852159137, -0.274924936766, 0.038257256652, 0.0578752972983, -0.00361032520116, 0.278595913008, 0.104377841221, -0.181226497179},
	{-0.418752760055, 0.057777720283, 0.00170827721254, 0.0782883161892, -0.0434222773629, 0.0354091225044, 0.0427511728433, 0.218253629213, 0.0617231928826, -0.366552064582},
	{-0.262613429628, 0.291988836654, -0.467459480223, -0.254781564241, 0.193364281391, -0.0166299603305, -0.178008091854, 0.100457260076, -0.182671282936, 0.127008118123},
	{0.00718915735892, 0.00248075845493, -0.000440348669367, -0.00830970528607, -0.000557027673729, -0.0128386593079, 0.00584521320305, 0.00238548858878, 0.00184241250355, 0.0142252188331},
	{-0.00385763137553, -0.0380710987618, 0.013787195016, 0.0030083658236, 0.0603461730417, -0.0606930117953, -0.0154008407306, -0.0035148475798, -0.0387568040053, -0.0116467500928},
	{-0.128418082634, 0.0840677320081, -0.27788822493, 0.0869839270505, -0.148148441679, 0.0867192690844, 0.0844324250015, -0.33248905062, 0.00752502826313, 0.191127462718},
	{0.0573167739289, 0.368930897995, -0.259005238252, -0.328666115242, 0.0124498644869, -0.246359028695, 0.0874534391562, -0.109032044193, -0.267361571851, 0.249800598312},
	{-0.231925222369, 0.0452314688458, -0.0695282771688, -0.490191413705, 0.0695715501718, 0.066472795998, 0.0553944235587, -0.179836057315, 0.206758327613, 0.0667868695964},
	{0.000924257971933, -0.0121124452584, 0.0107480357015, -0.00413407480653, -0.0111909684072, -0.00356357554142, -0.000182286048592, 0.0193624704313, 0.00237873636067, -0.00930972908337},
	{-0.00906215321132, -0.0142719465603, -0.0240189898397, 0.00781413320319, -0.0134110139256, -0.000572440934213, -0.00390228288307, 0.00378154488477, 0.00227607690965, 0.00605345146796},
	{0.0491875875768, -0.0825717209743, -0.0462573738064, -0.189970305106, -0.158656607735, 0.120439374111, 0.034500667559, -0.14521578685, 0.111535550604, 0.0131296682089},
	{-0.00913803354897, 0.00853718121631, -0.015535135581, -0.00609216395555, 0.00279557069121, 0.00327555586279, -0.00138216387131, 0.00829822744453, -0.00222521553122, -0.0155385904366},
	{0.0651660625181, 0.0127349195288, 0.207457799951, 0.00146436060204, -0.152773036161, 0.0709396153362, -0.18959710263, 0.137750926566, -0.0179244696842, -0.409972637691},
	{0.10007446077, -0.399908097866, 0.0357706241959, -0.193584283154, 0.0193958072848, 0.169304229153, -0.336107929314, -0.0698101497537, -0.0273862334964, 0.162133186836},
	{0.105748089213, 0.0172170316254, 0.0473594719594, 0.0167047792933, 0.00310510831575, -0.556303390739, 0.0535144229566, 0.0288226464338, 0.177538329395, -0.0536952609025},
	{0.0936056216252, 0.259398482778, 0.00862985644809, 0.0397691258498, 0.0075239010677, -0.284918645534, 0.0494519298642, 0.30792901699, -0.112443632054, -0.341307423134},
	{-0.188663184648, -0.00853422842749, -0.117461184684, 0.0474299966395, 0.119581809772, 0.0400628003985, 0.109584671805, -0.225213119596, 0.0488069045663, 0.0450445434388},
	{-0.265439923419, 0.0487932506566, 0.0702851744601, 0.0455977475439, -0.0808939442802, 0.010074345942, -0.625795269801, 0.122982182631, -0.0264139477372, 0.00949779469202},
	{-0.00648792726558, -0.00710407222956, -0.0123457065136, -0.00734318352629, -0.0174751888474, -0.00698453870919, -0.00866364979408, -0.00375625676366, -0.00259389699585, -0.00182199264361},
	{-0.253237015665, 0.0988605283119, 0.028011129688, 0.132779516358, -0.0493772502939, 0.0969706301428, -0.353501702739, 0.11085425194, 0.0441621892293, -0.289797220547},
	{-0.417761111902, 0.0840792861917, 0.0544873534511, 0.0413444215921, -0.343236564758, 0.158373502392, 0.213003992136, -0.00816042757895, 0.0696596185876, -0.297710771197},
	{0.00706684268666, -0.00106825959876, -0.00601842072069, -0.00450182024164, -0.0167931896463, 0.0077209956402, -0.0158645282055, -0.000670467918045, -0.00987011672279, 0.00507281907303},
	{0.0594460752328, -0.178101647419, -0.105660937466, 0.0676698662051, -0.315910450688, 0.0117531801982, -0.00429665884827, 0.0603599776351, 0.0655488955757, 0.0835291216245},
	{-0.0430737338958, 0.0958367878823, 0.105916858045, -0.0433093109884, 0.0241576967537, -0.0793776083171, 0.191874821355, 0.11853699782, -0.0207700284124, -0.654945212483},
	{0.164101440668, -0.104746645772, -0.177386449329, 0.0370217714841, 0.156198285681, -0.127681412889, -0.0436634786411, -0.103325861514, 0.0957563735974, -0.00595352697252},
	{0.101534883775, -0.105807452577, 0.00943176291287, 0.114417648625, 0.141984268486, -0.112364408099, -0.0356203186414, -0.157120045772, 0.00653149573701, -0.0376081988779},
	{0.0139193915257, -0.000375782905604, -0.00367781167202, -0.0159984992433, 0.01941208236, -4.23015483426e-05, -0.00236921737915, 0.000340064108704, -0.00725378782161, 0.00022003115377},
	{0.112316649504, 0.0913715768245, -0.0595441772151, -0.268339479723, 0.130715456638, -0.00770523728917, -0.245630603041, 0.0174934058834, 0.0630533580796, 0.0294842324227},
	{0.0610379907677, -0.314906027387, 0.0663207529522, -0.00773938086255, -0.325923365764, 0.0198485048794, 0.00724463520297, -0.0232101439648, 0.114672916975, -0.024534423064},
	{0.0414343551098, -0.183113020265, -0.00381353244159, 0.105826600731, 0.0296927058198, 0.0839357030699, 0.0771427069257, -0.300894403266, 0.0240427867214, -0.136085980268},
	{-0.00596232412761, -0.0119481553479, 0.0299661069751, -0.0217620440094, -0.00153976995083, -0.00246692328347, -0.00245735885241, -0.0260701509505, 0.00341244082032, 0.00949879641939},
	{0.138703481759, 0.0345069755312, -0.359248037515, 0.247208960931, -0.242746159154, 0.0627274415719, 0.144203236644, 0.128591482871, -0.2142780728, 0.028347344494},
	{0.0829941157058, 0.0225684117599, 0.0417987756717, 0.0173226888839, 0.115048544519, -0.466534591988, -0.330843713082, 0.0339443354719, 0.052578346372, 0.0823676544225},
	{-0.156742213809, -0.0282887971439, 0.0724633881833, -0.189109786347, 0.134313950475, -0.382708174305, -0.196429682919, 0.0350312146067, 0.0750004451868, 0.119444177021},
	{0.165652630555, 0.168222441991, 0.00927985374161, -0.411635623279, 0.109435637363, 0.0651700357486, 0.0193648915221, 0.0653761359755, -0.263080780246, 0.0182603165013},
	{0.0201326386492, -0.0185010593319, 0.0180926077275, -0.0114345706104, -0.0133047909813, -0.0118980390881, 0.021219103084, -0.0285332999137, -0.0353126008258, -0.0247753636716},
	{0.0194841373582, -0.0391716195217, -0.017080320323, 0.0107771864183, -0.0268420931865, -0.041496552957, -0.00885638829028, -0.0290903599945, 0.0219937718087, -0.0364054306128},
	{0.0623907544438, -0.133142520346, -0.362279699288, 0.244895712713, -0.208598300913, 0.142580286977, 0.117535379596, -0.46302608776, 0.00729299479909, -0.0958297394383},
	{0.0566810229286, -0.207200779983, -0.265927234852, 0.0469348256756, 0.0341019002623, 0.0103328142673, -0.00790389105062, -0.0697084417934, 0.0506412695138, 0.100309954277},
	{-0.120273434283, 0.164481415617, 0.141234177127, -0.131985154144, 0.181796214081, -0.00796814528983, 0.106786613456, 0.175630022773, -0.491858407864, -0.244943734158},
	{-0.327154900284, 0.0288168876919, 0.0683134242249, 0.122746975638, 0.0362230568603, -0.051280906229, -0.27226743785, -0.118580657291, 0.0184510811066, 0.0984900973081},
	{0.201350416728, 0.0285288899078, 0.167730374845, -0.0338708575425, -0.611203338803, 0.0180559903175, 0.00476875069491, 0.0903205193002, 0.0656384393924, -0.312760459893},
	{-0.00782149820375, -0.00333516259446, -0.00500440386053, -0.00606318538975, 0.00111950715797, 0.0008946141002, 0.00370481786392, 0.00248988104902, -0.0159311055173, 0.0162255010611},
	{-0.301040792614, -0.329741067356, -0.0419083009603, 0.159390779164, 0.0111458751967, 0.0248148560594, -0.0461709725608, 0.00801483122858, -0.00101048025458, 0.0927097891788},
	{0.0767340582862, -0.174958942705, 0.0237843891822, -0.0632245421179, -0.191313767844, 0.102884533638, 0.0342912703159, -0.294270843001, 0.0736575675744, 0.0759334027267},
	{-0.0228884148879, 0.116297048474, 0.13498294895, -0.0532160496036, 0.119882737238, -0.202427055077, -0.0417331263964, -0.0603773598582, -0.230647431037, 0.0977169129799},
	{-0.356064079438, 0.242877017391, -0.223815335029, -0.12947648844, 0.186053223334, 0.205170816887, -0.105264883853, 0.0723717346159, -0.0553826314015, -0.0969714858112},
	{0.00748664512143, -0.000605043231512, -0.0143019536534, 0.00762377191378, 0.0150497194259, 0.0162924356665, -0.0174617304547, 0.00044386345516, -0.00395783785057, -0.00708636471883},
	{0.156992808082, -0.035101891775, -0.289491627348, -0.10354656519, -0.106756703644, -0.202075943551, 0.210454326827, 0.0444790901195, 0.0916782285263, 0.0202505747784},
	{0.0164688565113, -0.144545293216, -0.0775202212653, -0.166207927939, 0.105810565026, 0.0278613573588, 0.129827068013, 0.062944720487, 0.0954911153972, -0.226066329502}
};

const ap_fixed<9, 1, AP_TRN_ZERO, AP_SAT> af2_weight[100][10] = {
	{0.00390625, 0.00390625, 0.0078125, 0.00390625, 0.0, 0.0, 0.0, 0.0, 0.0078125, 0.0078125},
	{0.0078125, 0.0, 0.05078125, -0.00390625, -0.0234375, 0.01953125, -0.0234375, -0.00390625, -0.03515625, -0.015625},
	{0.015625, 0.078125, 0.16796875, -0.3046875, 0.05078125, 0.0234375, -0.01953125, 0.203125, -0.40625, 0.0546875},
	{0.1015625, 0.12890625, 0.11328125, 0.1875, -0.6171875, -0.296875, -0.37109375, 0.078125, -0.01171875, -0.00390625},
	{0.1171875, -0.38671875, -0.20703125, -0.234375, -0.08203125, -0.015625, 0.328125, 0.01171875, -0.11328125, 0.19140625},
	{0.1640625, 0.22265625, -0.11328125, -0.03125, -0.1953125, 0.03515625, -0.421875, 0.09375, -0.171875, 0.11328125},
	{-0.00390625, 0.00390625, 0.01171875, -0.00390625, 0.0078125, 0.0, 0.0, 0.0, 0.0, 0.01171875},
	{-0.00390625, 0.09375, 0.12109375, 0.0625, -0.48828125, 0.01953125, -0.03125, -0.109375, 0.09375, -0.0078125},
	{-0.01171875, 0.00390625, 0.0, 0.0, 0.0078125, 0.0078125, 0.0, 0.015625, -0.01171875, 0.00390625},
	{-0.1875, 0.08203125, -0.12890625, -0.22265625, 0.1484375, 0.1328125, 0.07421875, -0.390625, 0.09375, 0.0390625},
	{0.04296875, -0.2421875, -0.14453125, 0.0859375, 0.0390625, 0.0546875, -0.234375, 0.04296875, -0.01171875, 0.06640625},
	{0.0, 0.00390625, 0.01171875, 0.0, 0.00390625, 0.00390625, 0.0, 0.0234375, 0.0, 0.01953125},
	{0.0234375, -0.16796875, 0.09375, 0.14453125, -0.41015625, 0.01953125, 0.11328125, -0.27734375, -0.05078125, 0.04296875},
	{0.0, 0.0, 0.0, -0.00390625, 0.0, 0.0078125, -0.00390625, 0.01171875, 0.0234375, -0.00390625},
	{-0.09375, -0.07421875, 0.16015625, 0.08984375, -0.3046875, -0.35546875, -0.05078125, 0.15625, 0.0234375, -0.1171875},
	{-0.01953125, -0.0078125, -0.3203125, 0.12109375, 0.0, 0.03515625, -0.2265625, -0.046875, 0.12109375, 0.1328125},
	{-0.0078125, -0.1328125, 0.1640625, 0.00390625, 0.21875, -0.125, -0.02734375, -0.015625, -0.37109375, 0.1484375},
	{-0.35546875, 0.36328125, -0.23046875, 0.046875, 0.11328125, 0.16015625, -0.14453125, 0.08203125, -0.41796875, 0.09765625},
	{-0.125, -0.25390625, -0.11328125, 0.2421875, 0.02734375, -0.04296875, 0.109375, 0.1796875, -0.2265625, -0.00390625},
	{0.0, 0.0234375, 0.01953125, 0.0390625, 0.0078125, -0.03125, 0.0078125, -0.015625, -0.015625, -0.0234375},
	{0.12109375, 0.01953125, 0.0625, -0.078125, 0.01953125, 0.07421875, -0.2109375, 0.08203125, -0.65234375, 0.140625},
	{0.00390625, 0.00390625, 0.0, 0.01171875, 0.0, 0.0078125, 0.01171875, 0.00390625, 0.0, 0.0},
	{0.26171875, 0.1796875, 0.09765625, -0.2578125, 0.109375, -0.43359375, 0.0234375, 0.234375, -0.2265625, -0.12109375},
	{0.0703125, -0.5703125, -0.0390625, 0.0, -0.1328125, 0.07421875, -0.04296875, -0.08203125, 0.13671875, 0.125},
	{-0.06640625, -0.01953125, 0.0, 0.0078125, 0.0546875, 0.01171875, 0.05078125, 0.04296875, 0.0, -0.05859375},
	{0.24609375, 0.1328125, 0.19140625, 0.05078125, -0.09375, -0.2421875, -0.19140625, -0.01953125, 0.015625, -0.34375},
	{0.01171875, 0.01171875, -0.015625, -0.0078125, 0.01953125, 0.0, 0.0078125, 0.03125, 0.01171875, 0.0},
	{-0.51953125, -0.0625, -0.1640625, 0.15625, 0.08203125, 0.0859375, -0.53515625, 0.0625, -0.125, 0.12890625},
	{0.03125, -0.13671875, 0.09375, -0.15234375, 0.08984375, -0.09765625, -0.1328125, -0.1015625, 0.12109375, 0.05078125},
	{0.24609375, -0.2421875, 0.140625, 0.03125, -0.26953125, -0.171875, 0.0, -0.01953125, -0.07421875, 0.1796875},
	{-0.00390625, -0.0078125, -0.01171875, 0.0, -0.00390625, 0.0, -0.00390625, -0.0078125, -0.00390625, -0.00390625},
	{-0.0390625, -0.41015625, 0.08984375, -0.18359375, 0.03515625, 0.05859375, 0.12890625, -0.11328125, 0.08203125, 0.04296875},
	{-0.1015625, -0.02734375, -0.00390625, 0.078125, 0.1015625, -0.1796875, 0.12890625, -0.171875, 0.0390625, 0.015625},
	{0.17578125, 0.05859375, -0.0390625, 0.02734375, -0.515625, 0.125, 0.03125, -0.30078125, -0.13671875, 0.01953125},
	{0.00390625, -0.0078125, -0.01171875, -0.0078125, 0.00390625, -0.00390625, 0.00390625, 0.00390625, 0.01171875, 0.0},
	{0.0, -0.0078125, 0.0, 0.01953125, -0.01171875, 0.00390625, 0.0078125, 0.0, 0.0, -0.015625},
	{0.0625, -0.22265625, 0.1171875, -0.265625, 0.16796875, 0.04296875, 0.09765625, -0.625, -0.08984375, 0.09375},
	{-0.06640625, 0.08984375, -0.08984375, -0.01171875, -0.11328125, -0.125, -0.390625, 0.10546875, -0.00390625, 0.1796875},
	{-0.06640625, -0.2578125, -0.23046875, -0.09375, 0.0234375, 0.0, 0.1640625, 0.03515625, 0.15234375, 0.04296875},
	{-0.24609375, -0.11328125, 0.28515625, -0.25390625, 0.10546875, -0.05859375, 0.0859375, 0.078125, -0.25, 0.03125},
	{0.03515625, 0.01171875, 0.08203125, 0.0078125, -0.0078125, -0.26171875, 0.03515625, -0.05859375, 0.1171875, -0.08203125},
	{-0.03515625, -0.0234375, 0.02734375, 0.0078125, 0.12890625, 0.08203125, 0.0390625, -0.15625, 0.08984375, -0.2890625},
	{0.00390625, -0.0078125, -0.01171875, -0.01171875, 0.01171875, 0.01953125, -0.01953125, -0.01171875, -0.015625, -0.01171875},
	{-0.30859375, 0.0625, -0.171875, 0.0, -0.08203125, 0.0546875, -0.33203125, 0.1015625, 0.171875, 0.05859375},
	{-0.45703125, -0.26953125, -0.203125, 0.04296875, 0.109375, 0.14453125, -0.31640625, 0.07421875, 0.0859375, 0.01953125},
	{-0.234375, 0.09765625, 0.19140625, -0.37890625, 0.1796875, 0.03515625, 0.0078125, -0.07421875, 0.08203125, -0.140625},
	{-0.0859375, 0.01953125, -0.05078125, 0.14453125, -0.37109375, 0.05859375, 0.1171875, -0.17578125, 0.0625, -0.0546875},
	{-0.26953125, 0.01953125, 0.15625, -0.00390625, -0.22265625, 0.0859375, -0.4375, 0.15234375, 0.0078125, -0.02734375},
	{0.0703125, -0.29296875, -0.4140625, 0.08984375, -0.1484375, 0.1015625, 0.06640625, 0.23828125, -0.078125, -0.1171875},
	{0.04296875, 0.03125, 0.08984375, -0.03515625, -0.3203125, 0.00390625, 0.28515625, 0.14453125, -0.0625, -0.4296875},
	{0.03125, 0.15625, -0.1640625, -0.26953125, 0.0390625, 0.05859375, 0.0, 0.27734375, 0.10546875, -0.17578125},
	{-0.4140625, 0.05859375, 0.0, 0.078125, -0.0390625, 0.03515625, 0.04296875, 0.21875, 0.0625, -0.36328125},
	{-0.2578125, 0.29296875, -0.46484375, -0.25, 0.1953125, -0.01171875, -0.17578125, 0.1015625, -0.1796875, 0.12890625},
	{0.0078125, 0.00390625, 0.0, -0.00390625, 0.0, -0.0078125, 0.00390625, 0.00390625, 0.0, 0.015625},
	{0.0, -0.03515625, 0.015625, 0.00390625, 0.05859375, -0.05859375, -0.01171875, 0.0, -0.03515625, -0.0078125},
	{-0.125, 0.0859375, -0.2734375, 0.0859375, -0.14453125, 0.0859375, 0.0859375, -0.328125, 0.0078125, 0.19140625},
	{0.05859375, 0.3671875, -0.25390625, -0.32421875, 0.01171875, -0.2421875, 0.0859375, -0.10546875, -0.26171875, 0.25},
	{-0.2265625, 0.046875, -0.06640625, -0.484375, 0.0703125, 0.06640625, 0.0546875, -0.17578125, 0.20703125, 0.06640625},
	{0.0, -0.0078125, 0.01171875, 0.0, -0.0078125, 0.0, 0.0, 0.01953125, 0.00390625, -0.00390625},
	{-0.00390625, -0.01171875, -0.01953125, 0.0078125, -0.0078125, 0.0, 0.0, 0.00390625, 0.00390625, 0.0078125},
	{0.05078125, -0.078125, -0.04296875, -0.1875, -0.15625, 0.12109375, 0.03515625, -0.140625, 0.11328125, 0.01171875},
	{-0.00390625, 0.0078125, -0.01171875, -0.00390625, 0.00390625, 0.00390625, 0.0, 0.0078125, 0.0, -0.01171875},
	{0.06640625, 0.01171875, 0.20703125, 0.0, -0.1484375, 0.0703125, -0.1875, 0.13671875, -0.015625, -0.40625},
	{0.1015625, -0.39453125, 0.03515625, -0.19140625, 0.01953125, 0.16796875, -0.33203125, -0.06640625, -0.0234375, 0.1640625},
	{0.10546875, 0.015625, 0.046875, 0.015625, 0.00390625, -0.55078125, 0.0546875, 0.02734375, 0.17578125, -0.05078125},
	{0.09375, 0.2578125, 0.0078125, 0.0390625, 0.0078125, -0.28125, 0.05078125, 0.30859375, -0.109375, -0.3359375},
	{-0.18359375, -0.00390625, -0.11328125, 0.046875, 0.12109375, 0.0390625, 0.109375, -0.22265625, 0.046875, 0.046875},
	{-0.26171875, 0.046875, 0.0703125, 0.046875, -0.078125, 0.01171875, -0.62109375, 0.12109375, -0.0234375, 0.0078125},
	{-0.00390625, -0.00390625, -0.0078125, -0.00390625, -0.01171875, -0.00390625, -0.00390625, 0.0, 0.0, 0.0},
	{-0.25, 0.09765625, 0.02734375, 0.1328125, -0.046875, 0.09765625, -0.34765625, 0.109375, 0.04296875, -0.28515625},
	{-0.4140625, 0.0859375, 0.0546875, 0.04296875, -0.33984375, 0.16015625, 0.21484375, -0.00390625, 0.0703125, -0.29296875},
	{0.0078125, 0.0, -0.00390625, 0.0, -0.01171875, 0.0078125, -0.01171875, 0.0, -0.0078125, 0.00390625},
	{0.05859375, -0.17578125, -0.1015625, 0.06640625, -0.3125, 0.01171875, 0.0, 0.05859375, 0.06640625, 0.08203125},
	{-0.0390625, 0.09765625, 0.10546875, -0.0390625, 0.0234375, -0.07421875, 0.19140625, 0.1171875, -0.015625, -0.65234375},
	{0.1640625, -0.1015625, -0.171875, 0.03515625, 0.15625, -0.125, -0.0390625, -0.09765625, 0.09765625, -0.00390625},
	{0.1015625, -0.1015625, 0.0078125, 0.11328125, 0.140625, -0.109375, -0.03125, -0.15234375, 0.0078125, -0.03515625},
	{0.015625, 0.0, 0.0, -0.01171875, 0.01953125, 0.0, 0.0, 0.0, -0.00390625, 0.0},
	{0.11328125, 0.08984375, -0.0546875, -0.265625, 0.12890625, -0.00390625, -0.2421875, 0.015625, 0.0625, 0.03125},
	{0.0625, -0.3125, 0.06640625, -0.00390625, -0.3203125, 0.01953125, 0.0078125, -0.01953125, 0.11328125, -0.01953125},
	{0.04296875, -0.1796875, 0.0, 0.10546875, 0.03125, 0.08203125, 0.078125, -0.296875, 0.0234375, -0.1328125},
	{-0.00390625, -0.0078125, 0.03125, -0.01953125, 0.0, 0.0, 0.0, -0.0234375, 0.00390625, 0.0078125},
	{0.140625, 0.03515625, -0.35546875, 0.24609375, -0.23828125, 0.0625, 0.14453125, 0.12890625, -0.2109375, 0.02734375},
	{0.08203125, 0.0234375, 0.04296875, 0.015625, 0.11328125, -0.4609375, -0.328125, 0.03515625, 0.05078125, 0.08203125},
	{-0.15234375, -0.0234375, 0.07421875, -0.18359375, 0.1328125, -0.37890625, -0.19140625, 0.03515625, 0.07421875, 0.12109375},
	{0.1640625, 0.16796875, 0.0078125, -0.40625, 0.109375, 0.06640625, 0.01953125, 0.06640625, -0.2578125, 0.01953125},
	{0.01953125, -0.015625, 0.01953125, -0.0078125, -0.0078125, -0.0078125, 0.01953125, -0.0234375, -0.03125, -0.01953125},
	{0.01953125, -0.03515625, -0.01171875, 0.01171875, -0.0234375, -0.0390625, -0.00390625, -0.0234375, 0.0234375, -0.03125},
	{0.0625, -0.12890625, -0.359375, 0.24609375, -0.203125, 0.14453125, 0.1171875, -0.4609375, 0.0078125, -0.09375},
	{0.05859375, -0.203125, -0.26171875, 0.046875, 0.03515625, 0.01171875, -0.00390625, -0.06640625, 0.05078125, 0.1015625},
	{-0.1171875, 0.1640625, 0.140625, -0.12890625, 0.18359375, -0.00390625, 0.10546875, 0.17578125, -0.48828125, -0.2421875},
	{-0.32421875, 0.02734375, 0.06640625, 0.12109375, 0.03515625, -0.046875, -0.26953125, -0.11328125, 0.01953125, 0.09765625},
	{0.203125, 0.02734375, 0.16796875, -0.03125, -0.60546875, 0.01953125, 0.00390625, 0.08984375, 0.06640625, -0.30859375},
	{-0.00390625, 0.0, 0.0, -0.00390625, 0.0, 0.0, 0.00390625, 0.00390625, -0.01171875, 0.015625},
	{-0.296875, -0.32421875, -0.0390625, 0.16015625, 0.01171875, 0.0234375, -0.04296875, 0.0078125, 0.0, 0.09375},
	{0.078125, -0.171875, 0.0234375, -0.05859375, -0.1875, 0.1015625, 0.03515625, -0.2890625, 0.07421875, 0.07421875},
	{-0.01953125, 0.1171875, 0.13671875, -0.05078125, 0.12109375, -0.19921875, -0.0390625, -0.0546875, -0.2265625, 0.09765625},
	{-0.3515625, 0.2421875, -0.21875, -0.125, 0.1875, 0.20703125, -0.1015625, 0.07421875, -0.05078125, -0.09375},
	{0.0078125, 0.0, -0.01171875, 0.0078125, 0.015625, 0.015625, -0.01171875, 0.0, 0.0, -0.00390625},
	{0.15625, -0.03125, -0.28515625, -0.1015625, -0.1015625, -0.19921875, 0.2109375, 0.04296875, 0.08984375, 0.01953125},
	{0.015625, -0.140625, -0.07421875, -0.1640625, 0.10546875, 0.02734375, 0.12890625, 0.0625, 0.09375, -0.22265625}
};
