// conv1_weight.h
// 2017/12/02 21:16:10 by marsee

const float conv1_fweight[10][1][5][5] = 
{
	{
		{
			{0.0652604592325,0.238061148707,0.114313287378,-0.0499604922658,0.0748791531534},
			{0.103023871095,0.301887260164,0.260078358765,0.0398175140575,-0.0357533296625},
			{-0.111186926398,-0.0425350148466,0.0387627088361,0.0960801288261,-0.0311755318459},
			{-0.381123627661,-0.271657155546,0.101209178868,0.317314849769,0.103160973985},
			{-0.309375198624,-0.120946786115,0.0672614222059,0.182998943946,0.120443761087}
		}
	}
	,
	{
		{
			{0.184378630646,0.173778258708,0.039577215429,-0.0917787536436,0.0470867531284},
			{-0.0519964590707,0.131084756872,0.255032647101,-0.0321676432641,-0.0313314876783},
			{-0.16363801652,0.0563836406049,0.203692459817,-0.0319190038261,-0.144627886393},
			{-0.128545217261,-0.0198239807757,0.228867657863,0.106997703146,0.00360664804958},
			{-0.18963631555,-0.14565752863,0.0514070627545,0.151751638416,0.171682270027}
		}
	}
	,
	{
		{
			{-0.288563661188,-0.476889898235,-0.367314354458,0.139531258873,0.350346906852},
			{-0.352485288274,-0.173454103935,0.158759339376,0.402901065988,0.096581966272},
			{-0.00357540893152,0.267608333457,0.455425174066,0.201771942353,-0.289189937509},
			{0.222257515352,0.287478543085,0.148949986099,-0.104427079059,-0.308436924176},
			{0.221652548225,0.0775000101021,-0.107756623209,-0.209945289148,-0.206613678559}
		}
	}
	,
	{
		{
			{-0.876738426379,-0.919269675107,-0.49710266043,0.195344651442,0.401295122226},
			{-0.982045599774,-0.507649867968,0.106960046689,0.520334741055,0.334351111385},
			{-0.574929997683,-0.0372356103015,0.431815357024,0.528191147249,0.0373342173648},
			{-0.158105296785,0.167715604178,0.367183983492,0.279473613099,-0.123838648334},
			{0.0531536035913,0.168916785074,0.193381997241,0.0339570829543,-0.230106251952}
		}
	}
	,
	{
		{
			{-0.0415579660882,-0.0689004676854,-0.184450835577,-0.486614213635,-0.634710304196},
			{0.0559234002728,0.204192089595,0.0387796309508,-0.63783992713,-0.978093371048},
			{0.0340952758123,0.395573798843,0.450358347289,-0.0791114711752,-0.416021703813},
			{-0.128350179292,0.256486901191,0.575657653202,0.563691227598,0.326870332479},
			{-0.250530510727,-0.103378497797,0.217335256337,0.438919094601,0.441500417442}
		}
	}
	,
	{
		{
			{-0.377127413594,-0.461529144581,-0.29718601872,-0.122134029437,0.0556741116297},
			{0.0294323747372,0.0866036120471,0.20641674617,0.17288550617,0.0985588663453},
			{0.422391144076,0.444434277792,0.252893742669,0.0430376715971,-0.0041557937726},
			{0.0632957865271,-0.0685089053708,-0.215258997891,-0.103621424405,0.00523782406203},
			{-0.151214604079,-0.138612194423,-0.015910605945,0.177529048522,0.0811435475615}
		}
	}
	,
	{
		{
			{-0.0518821233231,0.145794389455,0.18044977153,0.158060188626,0.000626795852535},
			{-0.180417202244,0.0268400894372,0.201775472324,0.0927544876768,-0.214011785463},
			{-0.136279736154,0.116347173891,0.327440733788,0.0506937618799,-0.357318343522},
			{-0.15640022942,0.149743667089,0.255299611632,0.0424850228509,-0.301002762682},
			{-0.130783398114,0.168998581898,0.223963897877,0.0349511042206,-0.389473117563}
		}
	}
	,
	{
		{
			{0.341826650407,0.388438289463,0.419205265053,0.508953777509,0.621678190095},
			{0.478124997843,0.581117066849,0.558553845286,0.470658493939,0.342762782803},
			{-0.116519630432,0.0568855251961,0.0427051793435,-0.216792333608,-0.41496276879},
			{-0.978571473316,-0.74241886271,-0.744191665676,-0.753378562447,-0.538787622906},
			{-0.752846177725,-0.660895115952,-0.440339683624,-0.0880422234997,0.0739287194624}
		}
	}
	,
	{
		{
			{0.116441187191,0.0851448891922,0.157722676825,0.0984464280552,0.180131147097},
			{0.0089468697539,0.0651271236328,0.15330011151,0.0177765862934,-0.0443034070852},
			{0.085395547478,0.242494143767,0.198352616505,-0.084850273721,-0.212903478185},
			{0.100437817706,0.310740283284,0.106767482577,-0.103353334382,-0.241804473307},
			{0.243364435632,0.184511087494,-0.138984818659,-0.305074324068,-0.582747466275}
		}
	}
	,
	{
		{
			{0.109150772076,0.115201437904,-0.0414667960353,-0.0450603115268,0.127802544161},
			{0.0600191084924,0.201858320535,0.22035131419,0.10272099191,-0.0407178738133},
			{-0.126497315058,0.0067029150423,0.175797496646,0.129297395621,-0.277455524444},
			{-0.269818087687,-0.171100467509,0.265547492513,0.296521314693,-0.150618133469},
			{-0.450348590523,-0.284102536618,0.173630519713,0.247493482817,0.0449937654608}
		}
	}
};

const ap_fixed<9, 1, AP_TRN_ZERO, AP_SAT> conv1_weight[10][1][5][5] = 
{
	{
		{
			{0.06640625,0.23828125,0.11328125,-0.046875,0.07421875},
			{0.1015625,0.30078125,0.26171875,0.0390625,-0.03125},
			{-0.10546875,-0.0390625,0.0390625,0.09765625,-0.02734375},
			{-0.37890625,-0.26953125,0.1015625,0.31640625,0.1015625},
			{-0.3046875,-0.1171875,0.06640625,0.18359375,0.12109375}
		}
	}
	,
	{
		{
			{0.18359375,0.171875,0.0390625,-0.0859375,0.046875},
			{-0.046875,0.1328125,0.25390625,-0.02734375,-0.02734375},
			{-0.16015625,0.0546875,0.203125,-0.02734375,-0.140625},
			{-0.125,-0.015625,0.23046875,0.10546875,0.00390625},
			{-0.1875,-0.140625,0.05078125,0.15234375,0.171875}
		}
	}
	,
	{
		{
			{-0.28515625,-0.47265625,-0.36328125,0.140625,0.3515625},
			{-0.34765625,-0.16796875,0.16015625,0.40234375,0.09765625},
			{0.0,0.26953125,0.45703125,0.203125,-0.28515625},
			{0.22265625,0.2890625,0.1484375,-0.1015625,-0.3046875},
			{0.22265625,0.078125,-0.10546875,-0.20703125,-0.203125}
		}
	}
	,
	{
		{
			{-0.87109375,-0.9140625,-0.4921875,0.1953125,0.40234375},
			{-0.9765625,-0.50390625,0.10546875,0.51953125,0.3359375},
			{-0.5703125,-0.03515625,0.43359375,0.52734375,0.0390625},
			{-0.15234375,0.16796875,0.3671875,0.28125,-0.12109375},
			{0.0546875,0.16796875,0.1953125,0.03515625,-0.2265625}
		}
	}
	,
	{
		{
			{-0.0390625,-0.06640625,-0.1796875,-0.484375,-0.62890625},
			{0.0546875,0.203125,0.0390625,-0.6328125,-0.97265625},
			{0.03515625,0.39453125,0.44921875,-0.07421875,-0.4140625},
			{-0.125,0.2578125,0.57421875,0.5625,0.328125},
			{-0.24609375,-0.09765625,0.21875,0.4375,0.44140625}
		}
	}
	,
	{
		{
			{-0.375,-0.45703125,-0.29296875,-0.1171875,0.0546875},
			{0.03125,0.0859375,0.20703125,0.171875,0.09765625},
			{0.421875,0.4453125,0.25390625,0.04296875,0.0},
			{0.0625,-0.06640625,-0.2109375,-0.1015625,0.00390625},
			{-0.1484375,-0.1328125,-0.01171875,0.17578125,0.08203125}
		}
	}
	,
	{
		{
			{-0.046875,0.14453125,0.1796875,0.15625,0.0},
			{-0.17578125,0.02734375,0.203125,0.09375,-0.2109375},
			{-0.1328125,0.1171875,0.328125,0.05078125,-0.3515625},
			{-0.15234375,0.1484375,0.25390625,0.04296875,-0.296875},
			{-0.125,0.16796875,0.22265625,0.03515625,-0.38671875}
		}
	}
	,
	{
		{
			{0.34375,0.38671875,0.41796875,0.5078125,0.62109375},
			{0.4765625,0.58203125,0.55859375,0.46875,0.34375},
			{-0.11328125,0.05859375,0.04296875,-0.2109375,-0.41015625},
			{-0.9765625,-0.73828125,-0.7421875,-0.75,-0.53515625},
			{-0.75,-0.65625,-0.4375,-0.0859375,0.07421875}
		}
	}
	,
	{
		{
			{0.1171875,0.0859375,0.15625,0.09765625,0.1796875},
			{0.0078125,0.06640625,0.15234375,0.01953125,-0.0390625},
			{0.0859375,0.2421875,0.19921875,-0.08203125,-0.2109375},
			{0.1015625,0.3125,0.10546875,-0.09765625,-0.23828125},
			{0.2421875,0.18359375,-0.13671875,-0.30078125,-0.578125}
		}
	}
	,
	{
		{
			{0.109375,0.11328125,-0.0390625,-0.04296875,0.12890625},
			{0.05859375,0.203125,0.21875,0.1015625,-0.03515625},
			{-0.12109375,0.0078125,0.17578125,0.12890625,-0.2734375},
			{-0.265625,-0.16796875,0.265625,0.296875,-0.1484375},
			{-0.4453125,-0.28125,0.171875,0.24609375,0.046875}
		}
	}
};
